svm_type c_svc
kernel_type rbf
gamma 0.005988023952095809
nr_class 5
total_sv 4291
rho -1.3952059063924052 -0.6048620051186787 -0.46828049972395674 -0.19087171851988893 0.403377884922452 0.673338771626107 0.566770171791459 -0.14849163811444974 0.6709708440030732 0.5005341566674343
label 1 5 3 2 4
nr_sv 1257 717 563 1239 515
SV
1.0 1.0 1.0 1.0 0:2.5 1:5.0 2:2.5 3:1.0 5:1.0 6:1.0 8:1.0 9:0.5 11:1.0 14:1.5 18:0.5 21:0.5 23:0.5 24:1.5 25:6.0 26:1.0 27:1.5 29:1.5 30:0.5 35:0.5 38:0.5 42:0.5 45:1.0 48:1.0 49:5.0 50:1.0 51:1.0 72:0.5 73:4.0 74:0.5 75:1.0 77:0.5 78:0.5 80:0.5 83:0.5 93:0.5 96:1.0 97:4.0 98:1.0 99:1.0 121:2.0 144:1.0 145:4.0 146:1.0 147:1.0 149:1.0 
0.0 1.0 0.08299831682787906 0.0 0:1.0 1:1.5 2:1.5 9:0.5 10:1.5 11:1.5 12:3.0 13:2.5 14:3.5 24:0.5 25:2.5 26:1.5 33:0.5 34:0.5 35:1.5 36:2.0 37:1.5 38:3.0 49:1.0 50:1.0 59:1.0 60:2.0 61:1.0 62:2.0 72:0.5 73:2.0 74:2.0 81:0.5 82:2.0 83:2.0 84:3.0 85:2.5 86:4.0 97:1.0 98:1.0 106:1.0 107:1.0 108:2.0 109:1.0 110:3.0 121:1.0 132:1.0 134:1.0 145:2.0 146:1.0 154:1.0 155:1.0 156:2.0 157:1.0 158:3.0 
0.6953485894148967 0.0 0.09159585091073391 0.0 0:1.5 1:2.0 3:0.5 6:1.5 8:0.5 9:0.5 10:1.0 11:0.5 12:3.5 13:4.0 14:4.5 24:1.5 25:2.5 27:1.0 30:2.5 32:1.0 36:0.5 37:1.0 38:0.5 48:1.0 49:2.0 54:1.0 60:1.0 61:1.0 62:1.0 72:2.0 73:3.0 75:0.5 78:2.0 80:0.5 81:0.5 82:0.5 84:1.5 85:2.0 86:2.0 96:1.0 97:2.0 102:1.0 108:1.0 109:1.0 110:1.0 121:1.0 126:1.0 144:2.0 145:2.0 147:1.0 150:2.0 156:1.0 157:1.0 158:1.0 
0.0 0.0 1.0 0.0 2:6.5 9:1.0 10:3.0 11:2.5 14:0.5 26:2.5 33:1.5 34:4.5 35:6.0 38:0.5 58:1.0 59:2.0 74:1.0 81:0.5 82:2.5 83:3.0 98:1.0 106:2.0 107:2.0 130:1.0 131:3.0 146:1.0 153:1.0 154:3.0 155:2.0 
1.0 0.0 1.0 0.0 2:3.5 6:0.5 7:0.5 8:0.5 9:1.0 10:4.0 11:4.0 13:0.5 14:2.5 26:2.0 31:0.5 32:1.0 33:1.0 34:4.5 35:5.5 38:1.5 50:1.0 58:3.0 59:4.0 62:1.0 74:1.0 80:0.5 81:0.5 82:2.5 83:4.0 86:0.5 98:1.0 105:1.0 106:3.0 107:4.0 110:1.0 130:1.0 131:1.0 146:1.0 153:1.0 154:3.0 155:3.0 158:1.0 
1.0 1.0 1.0 1.0 1:1.0 9:2.0 10:1.0 11:3.5 12:2.0 13:3.0 14:3.5 25:1.0 33:3.5 34:1.5 35:5.5 36:1.5 37:1.0 38:2.0 49:1.0 57:2.0 58:1.0 59:3.0 62:1.0 73:0.5 81:2.0 82:0.5 83:4.0 84:0.5 85:0.5 86:1.0 97:1.0 105:2.0 107:3.0 108:1.0 109:1.0 110:1.0 129:1.0 131:3.0 145:1.0 153:2.0 154:1.0 155:4.0 156:1.0 157:1.0 158:1.0 
1.0 1.0 0.24423006330234914 1.0 1:4.0 12:1.0 14:1.5 15:1.0 17:2.5 18:1.0 20:1.0 23:0.5 25:5.5 36:1.0 38:1.5 39:1.0 41:1.5 42:1.5 44:1.0 49:4.0 62:1.0 63:1.0 65:1.0 66:1.0 73:5.5 84:1.0 86:2.0 87:1.0 89:2.0 90:1.5 92:0.5 97:4.0 110:1.0 111:1.0 113:1.0 114:1.0 121:4.0 138:1.0 145:5.0 156:1.0 158:2.0 159:1.0 161:2.0 162:1.0 164:1.0 
0.0 0.0 0.408733038479871 0.02344885693557247 1:6.0 2:5.0 6:6.0 8:2.0 9:4.0 11:2.0 14:3.0 35:1.0 73:0.5 74:1.5 81:0.5 83:1.0 86:0.5 98:1.0 107:1.0 146:1.0 
1.0 0.0 1.0 0.0 2:4.5 6:1.0 7:2.0 8:2.5 9:0.5 10:3.5 11:2.0 14:0.5 26:2.0 30:1.0 31:2.0 32:2.5 33:0.5 34:2.0 35:2.0 50:1.0 55:2.0 56:2.0 58:2.0 59:1.0 74:2.0 78:1.5 79:3.0 80:3.5 81:0.5 82:3.0 83:2.5 86:0.5 98:1.0 102:1.0 103:2.0 104:2.0 106:2.0 107:1.0 127:1.0 128:1.0 130:1.0 131:1.0 146:2.0 150:1.0 151:2.0 152:2.0 154:2.0 155:2.0 
0.0 0.0 1.0 0.0 6:1.0 7:0.5 8:2.5 9:2.0 10:5.0 11:4.0 12:2.0 13:5.0 14:4.0 33:0.5 34:1.5 35:1.0 37:1.0 38:1.0 57:1.0 58:1.0 59:2.0 61:1.0 62:1.0 80:0.5 81:1.0 82:3.0 83:2.0 84:0.5 85:2.0 86:2.0 105:1.0 106:3.0 107:1.0 109:2.0 110:1.0 153:1.0 154:1.0 155:1.0 157:1.0 158:1.0 
0.0 1.0 1.0 0.12758519736825746 0:1.0 1:2.5 6:2.0 8:1.5 9:3.5 10:1.5 11:3.5 12:2.0 13:1.5 14:4.0 24:0.5 25:1.5 30:0.5 33:1.0 35:1.0 36:2.5 37:1.5 38:2.5 49:1.0 54:1.0 57:1.0 59:1.0 60:2.0 61:1.0 62:2.0 72:0.5 73:2.0 78:0.5 81:2.5 82:0.5 83:1.5 84:2.5 85:1.5 86:3.5 97:1.0 105:1.0 107:1.0 108:2.0 109:1.0 110:2.0 132:1.0 134:1.0 144:1.0 145:1.0 153:1.0 155:1.0 156:2.0 157:1.0 158:3.0 
1.0 0.0 0.0 0.0 0:0.5 1:5.0 2:3.0 5:0.5 12:4.0 13:3.5 14:4.5 15:0.5 17:2.0 20:1.5 25:0.5 36:1.5 37:0.5 38:1.0 49:2.0 60:2.0 61:1.0 62:2.0 65:1.0 72:0.5 73:2.5 74:0.5 84:4.0 85:2.5 86:3.0 89:0.5 97:1.0 108:2.0 109:1.0 110:1.0 132:1.0 145:1.0 156:2.0 157:1.0 158:2.0 
1.0 0.0 0.0 0.0 0:3.5 1:4.0 2:1.5 6:1.5 7:0.5 8:1.0 9:1.0 10:0.5 11:2.0 12:2.5 13:0.5 14:2.5 15:2.0 17:2.0 18:0.5 24:2.5 25:3.0 30:2.0 32:0.5 33:0.5 35:0.5 36:1.5 38:1.5 39:2.0 41:0.5 48:1.0 49:2.0 54:1.0 57:1.0 59:1.0 60:1.0 62:1.0 63:1.0 65:1.0 72:0.5 73:2.5 78:0.5 80:0.5 81:0.5 83:0.5 84:1.0 86:1.0 87:1.0 89:0.5 96:1.0 97:2.0 102:1.0 107:1.0 110:1.0 111:1.0 121:1.0 144:1.0 145:2.0 150:1.0 155:1.0 156:1.0 158:1.0 159:1.0 161:1.0 
0.1491738597528692 0.0 1.0 0.0 0:2.0 1:1.5 2:0.5 6:0.5 12:3.5 13:3.0 14:6.0 15:2.0 16:0.5 17:1.5 18:1.0 20:0.5 24:3.0 25:4.0 30:0.5 36:1.5 38:1.0 39:3.0 42:2.5 44:1.0 48:1.0 49:1.0 60:1.0 62:1.0 63:1.0 66:1.0 72:1.0 73:1.5 84:0.5 86:1.0 87:1.0 89:0.5 90:0.5 96:1.0 97:1.0 110:1.0 111:1.0 114:1.0 121:1.0 144:2.0 145:1.0 156:1.0 158:1.0 159:1.0 162:1.0 
0.29092356646646594 0.0 0.0 0.0 0:1.0 1:3.5 2:0.5 9:0.5 10:0.5 11:1.0 12:4.5 13:1.5 14:4.0 15:0.5 17:0.5 24:1.5 25:4.0 33:0.5 35:0.5 36:4.5 37:2.0 38:4.5 39:0.5 49:2.0 60:3.0 62:3.0 73:1.5 84:2.5 85:0.5 86:2.5 97:2.0 108:3.0 109:1.0 110:3.0 144:1.0 145:2.0 156:2.0 157:1.0 158:2.0 
0.0 0.0 1.0 0.0 0:5.0 6:0.5 9:3.5 10:3.5 11:3.5 12:0.5 13:0.5 14:1.0 24:1.5 25:0.5 33:2.5 34:2.5 35:2.0 38:0.5 48:2.0 57:2.0 58:2.0 59:2.0 72:3.5 73:0.5 78:0.5 81:3.5 82:2.5 83:3.0 84:0.5 85:0.5 86:0.5 96:1.0 105:2.0 106:1.0 107:2.0 144:3.0 153:2.0 154:2.0 155:2.0 
0.0 0.0 1.0 0.0 2:5.5 8:0.5 9:0.5 10:0.5 11:2.5 12:0.5 13:0.5 14:5.0 26:4.0 33:0.5 35:2.0 36:0.5 37:0.5 38:4.0 50:2.0 59:1.0 62:3.0 74:1.5 83:1.0 86:2.5 98:3.0 107:1.0 110:3.0 146:3.0 155:1.0 158:3.0 
1.0 1.0 1.0 1.0 0:1.5 1:2.5 2:1.0 3:0.5 5:0.5 6:0.5 8:1.0 9:1.0 10:0.5 11:1.5 12:0.5 14:1.5 15:0.5 17:0.5 19:0.5 24:2.5 25:5.5 26:1.5 27:1.0 29:1.5 30:1.5 31:0.5 32:2.5 33:2.5 35:2.5 36:1.5 38:2.5 43:0.5 48:1.0 49:2.0 53:1.0 56:1.0 57:1.0 59:1.0 60:1.0 62:1.0 72:1.5 73:4.0 74:0.5 77:0.5 78:0.5 80:0.5 81:1.5 83:1.5 84:0.5 86:1.5 96:1.0 97:2.0 101:1.0 104:1.0 105:1.0 107:1.0 110:1.0 120:1.0 121:3.0 129:1.0 144:2.0 145:3.0 146:1.0 149:1.0 150:1.0 152:1.0 153:1.0 155:1.0 156:1.0 158:1.0 
1.0 0.42210945305781594 1.0 0.8198912394147545 0:6.0 1:2.0 2:3.0 8:0.5 9:1.0 10:0.5 11:4.5 18:1.5 20:0.5 23:0.5 24:1.5 25:1.0 35:1.0 42:1.0 48:2.0 49:1.0 59:1.0 66:1.0 72:3.5 73:3.5 74:0.5 81:1.0 83:2.0 90:2.5 92:0.5 96:3.0 97:2.0 107:1.0 114:1.0 121:1.0 144:1.0 145:1.0 146:1.0 155:2.0 
1.0 0.0 0.0 0.0 0:2.0 1:1.0 9:2.5 10:2.5 11:3.0 12:4.0 13:3.5 14:5.5 15:0.5 24:0.5 25:0.5 33:1.0 34:1.0 35:1.0 36:1.0 37:0.5 38:1.5 57:1.0 58:1.0 59:1.0 60:1.0 62:1.0 72:1.0 73:1.0 81:2.0 82:2.0 83:2.0 84:3.0 85:1.5 86:3.0 87:0.5 96:1.0 97:1.0 105:1.0 106:1.0 107:1.0 108:1.0 109:1.0 110:1.0 153:1.0 154:1.0 155:1.0 156:1.0 157:1.0 158:2.0 
0.0 0.0 1.0 0.0 1:1.5 2:6.0 8:0.5 11:1.0 14:5.0 25:2.0 26:3.5 32:0.5 35:1.5 38:4.5 49:1.0 50:2.0 62:2.0 73:1.5 74:2.5 83:0.5 86:3.0 97:1.0 98:2.0 110:2.0 134:1.0 145:1.0 146:3.0 158:3.0 
1.0 1.0 1.0 0.0 0:0.5 1:3.0 2:1.5 9:1.0 11:0.5 12:2.5 13:1.0 14:5.0 15:0.5 16:0.5 17:2.0 25:1.5 36:1.0 38:2.5 49:2.0 60:1.0 62:3.0 72:0.5 73:4.0 74:1.0 81:1.0 83:0.5 84:3.0 85:0.5 86:5.0 87:0.5 89:1.0 97:1.0 108:1.0 110:3.0 121:1.0 132:1.0 134:1.0 145:2.0 146:1.0 153:1.0 156:2.0 158:4.0 161:1.0 
0.0 0.0 0.0 1.0 9:5.5 10:3.5 11:5.5 12:0.5 13:2.0 14:2.5 33:4.0 34:2.5 35:4.0 57:2.0 58:1.0 59:2.0 81:1.0 82:0.5 83:1.0 84:0.5 85:1.0 86:1.5 105:1.0 106:1.0 107:2.0 153:2.0 154:1.0 155:2.0 157:1.0 158:1.0 
1.0 1.0 1.0 1.0 2:0.5 9:1.0 10:0.5 11:1.5 12:2.0 13:1.5 14:3.0 33:1.5 34:1.0 35:2.5 36:3.0 37:2.5 38:4.0 57:1.0 59:1.0 60:2.0 61:2.0 62:3.0 73:0.5 80:0.5 81:2.0 82:0.5 83:3.5 84:3.5 85:3.5 86:5.0 105:1.0 107:2.0 108:2.0 109:2.0 110:3.0 129:1.0 131:2.0 132:1.0 133:1.0 134:3.0 145:1.0 153:1.0 154:1.0 155:2.0 156:2.0 157:2.0 158:3.0 
1.0 0.0 0.0 0.0 1:0.5 2:3.0 6:0.5 7:0.5 8:2.0 9:2.5 10:2.5 11:5.0 12:3.0 13:3.0 14:4.5 26:1.0 32:1.0 33:1.0 34:1.0 35:4.0 36:1.0 37:0.5 38:1.5 50:1.0 58:1.0 59:2.0 61:1.0 62:1.0 74:0.5 80:0.5 81:0.5 82:0.5 83:2.0 84:0.5 85:1.0 86:1.5 106:1.0 107:2.0 108:1.0 109:1.0 110:2.0 154:1.0 155:2.0 158:1.0 
0.0 0.29049508490474296 0.0 0.0 0:6.0 1:5.0 12:0.5 14:2.0 18:5.0 24:0.5 25:5.0 36:1.0 38:4.5 39:0.5 42:0.5 49:2.0 62:2.0 73:3.0 84:0.5 86:2.0 97:2.0 110:1.0 121:3.0 134:3.0 145:2.0 158:2.0 
1.0 0.0 1.0 1.0 0:0.5 1:1.0 2:1.5 6:0.5 8:0.5 9:3.0 10:2.0 11:4.0 12:2.0 13:2.5 14:4.5 18:0.5 24:1.0 25:1.5 26:0.5 30:0.5 33:3.0 34:2.0 35:4.0 36:1.0 37:1.0 38:3.0 49:1.0 57:1.0 58:1.0 59:3.0 60:1.0 61:1.0 62:2.0 73:0.5 81:1.0 82:1.0 83:2.0 84:0.5 85:1.0 86:2.0 105:2.0 106:1.0 107:3.0 108:1.0 109:1.0 110:2.0 153:1.0 154:1.0 155:2.0 157:1.0 158:2.0 
1.0 0.0 1.0 0.0 0:2.0 1:5.5 2:3.5 6:5.5 8:2.0 9:0.5 11:1.0 14:2.5 17:0.5 24:0.5 25:4.0 26:2.0 30:2.5 32:1.5 33:0.5 35:1.5 38:1.5 49:2.0 50:1.0 54:1.0 56:1.0 62:1.0 73:1.5 74:0.5 78:0.5 80:0.5 83:0.5 86:0.5 97:2.0 98:1.0 102:1.0 104:1.0 107:1.0 110:1.0 145:1.0 146:1.0 150:1.0 158:1.0 
0.0 0.0 1.0 0.0 1:1.5 2:5.5 9:0.5 10:0.5 11:2.5 12:2.0 13:1.5 14:4.0 25:1.5 26:3.0 33:1.0 35:2.5 36:1.5 37:0.5 38:3.5 49:1.0 50:2.0 59:1.0 62:2.0 73:0.5 74:3.5 81:0.5 82:0.5 83:2.5 84:0.5 85:0.5 86:3.0 97:1.0 98:2.0 107:2.0 108:1.0 110:2.0 131:1.0 134:1.0 145:1.0 146:2.0 155:2.0 156:1.0 157:1.0 158:2.0 
0.5313328943156405 0.0 0.0 0.0 2:0.5 6:0.5 7:0.5 8:0.5 9:3.0 10:2.5 11:3.5 12:2.0 13:4.0 14:4.5 30:0.5 32:0.5 33:3.5 34:2.5 35:4.5 36:2.0 37:3.0 38:3.5 57:1.0 58:1.0 59:2.0 60:1.0 61:2.0 62:2.0 81:1.0 82:0.5 83:1.0 84:0.5 85:1.0 86:1.0 105:2.0 106:1.0 107:3.0 108:1.0 109:2.0 110:2.0 153:1.0 154:1.0 155:1.0 156:1.0 157:1.0 158:1.0 
0.0 0.0 1.0 0.0 0:1.0 1:2.5 2:5.0 5:0.5 8:0.5 11:0.5 12:1.5 13:0.5 14:3.5 15:0.5 24:0.5 25:1.5 26:2.0 36:1.0 38:2.5 49:1.0 50:2.0 60:1.0 62:2.0 72:1.0 73:4.0 74:4.5 77:0.5 80:0.5 83:0.5 84:3.0 85:0.5 86:4.5 87:0.5 97:2.0 98:2.0 108:1.0 110:2.0 134:1.0 144:1.0 145:2.0 146:3.0 156:1.0 158:2.0 
0.0 0.0 0.0 0.1197692110648188 0:0.5 1:7.0 2:5.5 12:1.0 13:1.0 14:1.0 17:0.5 25:0.5 49:1.0 50:1.0 72:0.5 73:1.0 84:2.5 85:2.0 86:2.0 145:2.0 146:1.0 
0.026894132574192573 0.0 0.0 0.0 0:6.5 1:0.5 9:0.5 12:1.0 13:2.5 14:5.5 24:3.0 25:1.5 33:1.5 36:3.5 37:3.0 38:4.0 48:1.0 60:1.0 61:1.0 62:2.0 72:1.5 73:0.5 81:0.5 84:1.5 86:0.5 96:1.0 108:1.0 109:1.0 110:2.0 120:1.0 132:1.0 144:1.0 158:1.0 
0.0 0.0 1.0 0.0 0:4.5 1:3.5 2:2.5 9:1.0 10:2.0 11:4.5 12:1.5 13:1.5 14:6.0 18:1.0 24:0.5 25:0.5 35:0.5 48:1.0 49:2.0 59:1.0 62:1.0 66:1.0 72:2.0 73:2.5 81:1.0 82:1.0 83:2.0 84:0.5 86:1.5 90:1.0 97:1.0 107:1.0 145:1.0 155:1.0 
0.36005464559557687 1.0 0.0 1.0 0:1.0 1:4.0 2:0.5 3:0.5 5:0.5 8:0.5 11:0.5 12:2.5 13:2.0 14:2.0 15:1.0 18:0.5 21:0.5 24:1.0 25:4.5 26:0.5 27:1.0 36:2.0 37:0.5 38:1.5 39:1.0 48:1.0 49:3.0 60:2.0 61:1.0 62:1.0 63:1.0 72:1.5 73:6.0 74:0.5 75:0.5 77:0.5 80:0.5 83:0.5 84:2.0 85:0.5 86:1.0 87:1.5 90:0.5 93:0.5 96:1.0 97:3.0 108:1.0 110:1.0 111:1.0 121:3.0 144:1.0 145:4.0 146:1.0 147:1.0 156:2.0 157:1.0 158:1.0 159:1.0 
0.0 1.0 1.0 0.0 9:3.0 10:3.5 11:1.5 12:1.5 13:3.0 14:2.0 33:3.5 34:3.5 35:2.0 36:1.5 37:3.5 38:3.0 57:1.0 58:2.0 59:1.0 60:1.0 61:2.0 62:1.0 81:2.5 82:2.5 83:1.5 84:0.5 85:2.5 86:2.0 105:2.0 106:3.0 107:1.0 108:1.0 109:2.0 110:2.0 129:1.0 130:1.0 133:1.0 153:3.0 154:3.0 155:1.0 156:1.0 157:3.0 158:2.0 
1.0 0.0 1.0 0.0 0:1.0 1:3.0 2:1.0 6:1.0 9:2.5 11:1.5 12:4.5 13:2.5 14:5.0 24:0.5 25:1.5 30:0.5 33:1.5 35:0.5 36:2.0 37:0.5 38:2.5 49:2.0 57:2.0 59:1.0 60:2.0 62:2.0 72:0.5 73:2.0 78:0.5 81:2.0 83:1.0 84:2.5 85:1.0 86:3.0 97:2.0 105:2.0 107:1.0 108:2.0 109:1.0 110:3.0 145:1.0 153:1.0 156:1.0 157:1.0 158:2.0 
0.0 0.0 0.0 0.3978639631530539 2:3.0 6:6.5 7:6.0 8:1.0 11:3.5 26:0.5 30:1.0 31:1.5 32:1.5 35:1.0 59:1.0 78:0.5 79:1.5 80:0.5 83:0.5 107:1.0 127:1.0 146:1.0 150:1.0 151:1.0 152:1.0 155:1.0 
0.0 0.0 1.0 0.0 1:6.0 2:2.0 6:0.5 7:3.0 8:2.0 9:0.5 10:5.5 11:3.5 14:0.5 25:2.0 26:0.5 31:0.5 32:0.5 33:0.5 34:0.5 35:0.5 49:2.0 56:1.0 58:1.0 59:1.0 73:3.0 74:0.5 79:0.5 80:1.0 82:0.5 83:0.5 86:0.5 97:1.0 104:1.0 106:1.0 145:2.0 146:1.0 152:1.0 154:1.0 155:1.0 
0.014036185509409452 0.0 0.0 1.0 0:1.0 1:4.5 6:4.5 8:1.5 9:2.5 11:1.0 12:1.0 13:0.5 14:1.5 15:1.0 17:0.5 24:0.5 25:4.0 30:3.0 32:0.5 33:1.5 35:0.5 49:3.0 54:2.0 57:1.0 62:1.0 72:0.5 73:3.0 78:1.5 80:0.5 81:1.0 83:0.5 84:1.0 85:0.5 86:1.5 87:1.5 89:0.5 97:3.0 102:2.0 105:1.0 110:1.0 111:1.0 145:4.0 150:3.0 152:1.0 153:1.0 158:1.0 
0.0 0.0 0.0 1.0 1:6.5 2:2.0 9:2.0 11:4.0 12:3.0 14:3.5 25:1.0 36:1.0 38:1.0 49:2.0 60:1.0 62:1.0 73:3.0 84:2.0 86:2.0 97:1.0 145:2.0 156:2.0 158:1.0 
0.5703216239962436 0.0 1.0 0.0 0:1.5 1:1.0 12:3.0 13:2.5 14:5.5 15:2.5 16:1.5 17:1.0 18:3.5 19:1.5 20:0.5 24:1.5 25:2.0 36:0.5 38:0.5 39:2.0 40:0.5 41:0.5 42:4.0 43:1.5 44:1.0 48:1.0 49:1.0 63:1.0 66:2.0 67:1.0 72:1.0 73:2.0 84:0.5 86:1.0 87:1.0 88:0.5 89:0.5 90:3.0 91:0.5 92:0.5 96:1.0 97:1.0 111:1.0 114:2.0 115:1.0 121:1.0 138:1.0 144:1.0 145:1.0 158:1.0 159:1.0 162:3.0 163:1.0 
0.6846379321655724 0.0 0.0 0.0 0:2.0 1:2.5 2:0.5 3:0.5 6:4.5 7:1.5 8:1.5 12:0.5 14:1.5 15:3.0 16:0.5 17:3.0 24:0.5 25:3.0 30:4.0 31:1.0 32:2.5 36:1.0 38:1.5 39:3.0 41:3.0 49:1.0 54:1.0 56:1.0 62:1.0 63:1.0 65:1.0 73:1.5 78:1.5 79:0.5 80:1.0 84:0.5 86:1.0 87:1.0 89:1.0 97:1.0 102:3.0 103:1.0 104:1.0 111:1.0 113:1.0 145:2.0 150:2.0 152:1.0 158:1.0 159:2.0 161:2.0 
1.0 0.0 1.0 0.0 1:1.5 2:4.0 6:2.0 7:2.0 8:1.5 9:2.0 10:2.0 11:4.0 12:0.5 13:0.5 14:3.5 25:0.5 26:2.0 30:0.5 31:0.5 32:1.5 33:0.5 34:0.5 35:2.5 38:1.0 50:1.0 56:1.0 59:2.0 62:1.0 73:1.5 74:2.0 78:0.5 79:0.5 80:2.0 81:0.5 82:0.5 83:3.0 86:1.5 98:2.0 104:1.0 107:2.0 110:1.0 146:1.0 150:1.0 151:1.0 152:1.0 153:1.0 154:1.0 155:2.0 158:1.0 
1.0 0.0 1.0 0.0 1:1.5 2:6.0 5:0.5 6:0.5 8:1.0 9:1.0 10:1.0 11:2.5 12:1.5 13:0.5 14:2.5 25:1.5 26:2.0 32:0.5 33:0.5 35:1.5 36:0.5 38:1.5 49:1.0 50:2.0 59:1.0 60:1.0 62:1.0 73:2.0 74:3.0 77:1.0 80:1.5 81:0.5 82:0.5 83:2.5 84:1.0 85:0.5 86:2.5 97:1.0 98:2.0 107:1.0 110:1.0 145:1.0 146:3.0 152:1.0 155:1.0 156:1.0 158:1.0 
1.0 0.0 0.0 0.0 0:0.5 1:2.5 6:1.0 7:0.5 8:0.5 9:1.5 10:0.5 11:1.5 12:4.5 13:3.0 14:4.5 15:1.0 17:0.5 25:1.0 30:0.5 33:0.5 35:0.5 36:2.0 38:1.0 49:1.0 57:1.0 59:1.0 60:2.0 61:1.0 62:2.0 73:1.5 78:1.0 79:0.5 80:0.5 81:1.5 82:0.5 83:1.5 84:4.0 85:1.5 86:3.5 87:0.5 97:1.0 105:1.0 107:1.0 108:2.0 110:2.0 145:1.0 153:1.0 155:1.0 156:2.0 157:1.0 158:2.0 
0.9011224487757583 0.0 1.0 0.0 0:1.0 1:0.5 2:2.0 6:1.0 7:0.5 8:1.5 9:3.0 10:2.5 11:3.5 12:2.0 13:1.5 14:3.5 24:1.5 25:1.5 26:1.0 30:1.5 31:0.5 32:2.0 33:4.0 34:3.0 35:5.0 36:2.0 37:2.0 38:3.5 54:1.0 56:1.0 57:2.0 58:1.0 59:2.0 61:1.0 62:1.0 78:0.5 80:0.5 81:1.5 82:1.0 83:2.0 84:0.5 85:0.5 86:1.0 102:1.0 104:1.0 105:2.0 106:1.0 107:2.0 108:1.0 109:1.0 110:1.0 131:1.0 153:1.0 154:1.0 155:2.0 156:1.0 157:1.0 158:1.0 
1.0 1.0 0.15268269922201602 0.0 1:1.5 2:0.5 6:1.5 7:0.5 8:1.5 9:1.0 10:0.5 11:1.5 12:2.0 13:0.5 14:2.0 25:1.5 30:2.0 31:0.5 32:2.0 33:1.0 35:1.5 36:2.5 37:0.5 38:2.5 49:1.0 54:1.0 56:1.0 57:1.0 59:1.0 60:2.0 62:1.0 73:2.5 78:3.0 79:0.5 80:3.5 81:2.0 82:0.5 83:2.0 84:3.5 85:0.5 86:3.5 97:1.0 102:2.0 104:2.0 105:1.0 107:1.0 108:2.0 110:2.0 121:1.0 126:1.0 128:1.0 131:1.0 132:1.0 134:1.0 145:2.0 150:2.0 151:1.0 152:2.0 153:1.0 155:1.0 156:2.0 157:1.0 158:2.0 
0.0 0.0 1.0 0.0 2:1.0 12:3.5 13:5.0 14:5.5 36:0.5 37:1.5 38:3.5 61:1.0 62:3.0 74:0.5 84:2.0 85:3.5 86:4.5 108:1.0 109:2.0 110:3.0 134:1.0 156:1.0 157:2.0 158:3.0 
0.0 0.5349999785118845 0.0 0.0 0:3.0 1:0.5 2:2.0 10:0.5 11:2.0 12:1.0 13:2.0 14:6.0 15:2.0 24:1.0 25:1.0 26:0.5 35:0.5 36:1.0 37:1.0 38:3.5 39:1.5 60:1.0 62:2.0 63:1.0 72:1.0 73:0.5 74:0.5 83:0.5 84:1.5 85:1.0 86:4.5 87:1.5 98:1.0 108:1.0 109:1.0 110:3.0 111:1.0 121:1.0 132:1.0 134:2.0 135:1.0 144:1.0 146:1.0 155:1.0 156:1.0 157:1.0 158:3.0 159:1.0 
0.0 1.0 0.0 0.0 0:6.5 11:0.5 12:1.0 13:1.0 14:4.0 24:1.5 25:1.0 33:1.0 36:3.0 37:1.5 38:4.5 48:1.0 60:1.0 61:1.0 62:3.0 72:1.0 73:0.5 81:0.5 84:1.5 85:0.5 86:3.0 108:1.0 109:1.0 110:3.0 120:1.0 132:1.0 134:2.0 144:1.0 156:1.0 157:1.0 158:3.0 
1.0 0.0 1.0 1.0 0:0.5 1:2.0 2:2.5 9:2.0 10:2.5 11:5.0 12:1.5 13:1.0 14:2.5 25:1.0 26:0.5 33:1.5 34:1.5 35:3.5 36:1.0 38:1.5 49:1.0 50:1.0 57:1.0 58:1.0 59:3.0 60:1.0 62:1.0 72:0.5 73:2.0 74:1.0 81:2.5 82:2.0 83:4.5 84:1.5 85:0.5 86:2.0 97:2.0 105:1.0 106:1.0 107:3.0 108:1.0 110:1.0 131:1.0 145:1.0 146:1.0 153:1.0 154:2.0 155:3.0 156:1.0 158:1.0 
1.0 0.7518836312423718 1.0 0.0 1:2.5 2:1.0 3:0.5 5:2.5 6:0.5 8:2.0 9:0.5 11:2.0 18:6.5 19:3.0 20:1.0 23:2.0 25:2.5 29:1.0 32:0.5 35:0.5 42:3.0 44:1.0 47:0.5 49:1.0 66:2.0 73:1.0 77:0.5 90:2.0 92:0.5 95:0.5 97:1.0 114:1.0 138:1.0 145:1.0 149:1.0 162:1.0 167:1.0 
0.0 0.0 1.0 0.0 0:2.0 1:2.0 2:1.5 9:2.5 10:2.5 11:4.0 12:2.5 13:2.5 14:5.0 24:0.5 33:1.0 34:0.5 35:1.5 36:1.0 37:0.5 38:1.5 49:1.0 57:1.0 58:1.0 59:2.0 60:1.0 61:1.0 62:2.0 72:1.0 73:1.5 81:1.5 82:1.5 83:2.5 84:1.0 85:1.0 86:3.0 105:1.0 106:1.0 107:1.0 108:1.0 109:1.0 110:1.0 144:1.0 153:1.0 154:1.0 155:2.0 156:1.0 157:1.0 158:2.0 
1.0 0.0 0.0 0.0 0:1.5 1:3.0 3:1.5 5:0.5 6:1.5 8:0.5 9:0.5 12:1.5 13:0.5 14:2.5 15:3.5 16:1.0 17:3.0 24:1.5 25:3.0 27:1.5 30:1.0 36:0.5 38:0.5 39:1.0 41:0.5 48:1.0 49:2.0 51:1.0 60:1.0 62:1.0 63:2.0 65:1.0 72:2.0 73:3.5 75:1.5 77:0.5 78:1.5 84:1.0 85:0.5 86:1.5 87:2.5 88:0.5 89:2.0 96:1.0 97:3.0 99:1.0 102:1.0 108:1.0 110:1.0 111:2.0 113:1.0 121:1.0 144:1.0 145:3.0 147:1.0 150:1.0 156:1.0 158:1.0 159:2.0 161:1.0 
0.0 0.0 1.0 0.0 0:2.5 1:4.0 2:6.0 9:3.5 11:2.0 12:1.5 13:0.5 14:6.0 25:0.5 33:1.0 38:0.5 57:1.0 72:0.5 73:2.5 81:1.5 83:0.5 84:0.5 86:1.0 97:1.0 105:1.0 121:1.0 129:1.0 144:1.0 145:1.0 153:1.0 158:1.0 
0.0 1.0 1.0 1.0 1:4.5 6:1.5 7:0.5 8:2.0 9:2.0 10:3.5 11:2.5 25:6.0 30:2.0 31:0.5 32:2.5 33:1.5 34:2.0 35:3.0 49:3.0 54:1.0 56:1.0 57:1.0 58:1.0 59:1.0 73:3.5 78:1.0 80:1.5 81:0.5 82:0.5 83:1.5 97:4.0 102:1.0 104:1.0 105:1.0 106:1.0 107:1.0 121:1.0 145:4.0 150:1.0 152:2.0 153:1.0 154:1.0 155:2.0 
0.0 1.0 1.0 1.0 1:2.0 9:3.0 10:1.0 11:3.0 12:1.5 13:3.0 14:2.0 25:2.5 33:3.5 34:0.5 35:3.5 49:2.0 57:2.0 59:3.0 73:3.5 81:4.5 82:1.0 83:4.5 84:0.5 85:1.0 86:0.5 97:2.0 105:2.0 107:3.0 121:1.0 129:1.0 131:2.0 145:3.0 153:3.0 154:1.0 155:3.0 157:1.0 
1.0 1.0 1.0 0.12657568293727917 0:0.5 1:1.0 2:3.0 9:1.5 10:0.5 11:2.0 12:0.5 13:0.5 14:2.5 17:0.5 25:1.5 26:2.0 33:2.5 34:1.0 35:4.0 36:0.5 37:0.5 38:2.5 49:1.0 50:2.0 57:1.0 58:1.0 59:2.0 62:1.0 72:0.5 73:2.5 74:2.5 81:2.5 82:1.5 83:4.0 84:0.5 85:0.5 86:2.5 92:0.5 97:1.0 98:2.0 105:1.0 106:1.0 107:2.0 110:2.0 121:1.0 122:1.0 129:2.0 130:1.0 131:3.0 134:1.0 145:2.0 146:2.0 153:2.0 154:1.0 155:3.0 158:2.0 
0.0 1.0 1.0 0.0 0:0.5 1:3.0 2:1.0 6:0.5 8:0.5 9:2.0 10:0.5 11:2.0 12:3.0 13:1.0 14:4.0 24:0.5 25:2.5 26:0.5 30:0.5 33:2.5 34:0.5 35:1.5 36:2.0 37:0.5 38:3.5 49:1.0 57:1.0 59:1.0 60:1.0 62:2.0 73:2.0 74:1.0 81:2.0 82:0.5 83:1.5 84:2.5 85:1.0 86:3.5 97:2.0 105:1.0 107:1.0 108:2.0 110:3.0 121:1.0 134:1.0 145:2.0 146:1.0 153:1.0 155:1.0 156:2.0 157:1.0 158:3.0 
0.0 0.0 0.0 1.0 1:6.5 2:2.0 6:0.5 12:0.5 14:5.0 25:3.5 26:0.5 36:0.5 38:3.0 49:3.0 62:1.0 73:2.5 86:1.5 97:2.0 110:2.0 145:4.0 158:2.0 
1.0 1.0 1.0 1.0 0:2.5 1:4.0 2:2.5 8:0.5 9:1.5 10:1.5 11:3.5 12:0.5 13:0.5 14:1.5 15:0.5 17:0.5 18:0.5 19:0.5 24:1.0 25:3.5 26:0.5 33:1.0 35:2.0 38:0.5 49:2.0 50:1.0 57:1.0 59:2.0 62:1.0 72:1.0 73:4.0 74:1.0 81:2.0 82:1.5 83:3.5 84:1.0 86:1.5 87:0.5 89:0.5 90:0.5 92:0.5 96:1.0 97:3.0 98:1.0 105:1.0 106:1.0 107:2.0 110:1.0 121:1.0 131:1.0 144:1.0 145:3.0 146:1.0 153:1.0 154:1.0 155:2.0 158:1.0 
1.0 1.0 1.0 1.0 1:1.0 2:2.0 6:0.5 8:0.5 9:2.5 10:2.5 11:4.5 12:0.5 13:0.5 14:3.0 25:0.5 26:0.5 33:2.5 34:2.5 35:4.0 38:1.0 50:1.0 57:2.0 58:2.0 59:4.0 62:2.0 73:0.5 74:1.0 81:2.5 82:2.5 83:4.5 86:1.5 98:1.0 105:2.0 106:2.0 107:3.0 110:1.0 129:1.0 131:1.0 153:2.0 154:2.0 155:3.0 158:1.0 
0.18063402841145132 0.0 0.0 0.0 0:2.0 1:5.0 2:0.5 6:1.0 8:1.0 9:0.5 11:1.0 12:1.0 14:2.0 15:2.5 16:0.5 17:4.5 18:0.5 20:0.5 24:1.5 25:5.0 30:2.0 32:1.0 33:0.5 35:0.5 36:0.5 38:1.0 39:1.5 41:2.0 48:1.0 49:2.0 63:1.0 65:2.0 72:0.5 73:3.0 78:0.5 84:1.0 86:1.0 87:0.5 89:1.0 96:1.0 97:3.0 102:1.0 111:1.0 113:1.0 121:1.0 144:1.0 145:2.0 156:1.0 158:1.0 159:1.0 161:1.0 
0.0 0.0 1.0 0.0 1:7.0 2:2.0 8:0.5 9:0.5 10:0.5 11:3.5 13:0.5 14:2.0 18:2.5 20:3.0 25:0.5 26:0.5 33:0.5 35:1.5 38:1.0 59:1.0 73:0.5 83:0.5 97:1.0 107:1.0 155:1.0 158:1.0 
0.0 0.0 1.0 0.0 1:0.5 2:6.5 9:3.0 10:1.5 11:3.0 12:1.5 13:1.0 14:3.0 26:1.0 33:1.5 34:0.5 35:2.0 36:0.5 37:0.5 38:1.5 57:1.0 59:1.0 62:1.0 74:1.0 81:1.5 82:0.5 83:1.5 84:0.5 85:0.5 86:2.0 98:1.0 105:1.0 106:1.0 107:2.0 108:1.0 110:2.0 146:1.0 153:1.0 154:1.0 155:1.0 156:1.0 158:1.0 
0.5128501206349594 0.0 1.0 1.0 0:3.5 1:3.0 2:3.0 8:1.5 9:2.0 10:2.0 11:6.0 18:2.0 24:0.5 25:1.5 35:0.5 42:0.5 48:1.0 49:2.0 59:2.0 66:1.0 72:2.0 73:4.0 74:1.0 80:1.0 81:1.5 82:1.0 83:4.0 90:2.0 96:1.0 97:2.0 107:2.0 114:1.0 144:1.0 145:1.0 153:1.0 154:1.0 155:2.0 
0.0 0.0 0.5649178094528483 0.0 0:3.0 1:7.0 2:2.5 8:3.0 25:2.0 26:0.5 30:0.5 32:2.0 49:1.0 56:1.0 73:1.5 80:0.5 97:2.0 145:1.0 152:1.0 
1.0 0.0 1.0 0.0 0:0.5 1:0.5 2:0.5 7:0.5 8:2.0 9:3.5 10:4.0 11:5.5 12:1.5 13:1.5 14:1.0 24:0.5 25:0.5 32:1.0 33:3.0 34:2.5 35:4.5 36:1.0 37:0.5 57:1.0 58:1.0 59:3.0 81:1.0 82:1.0 83:2.0 84:0.5 105:2.0 106:1.0 107:3.0 153:1.0 154:1.0 155:2.0 156:1.0 
1.0 0.8765868170773691 1.0 1.0 0:1.5 1:4.5 2:2.5 3:0.5 5:1.5 6:1.0 7:0.5 8:3.0 9:1.0 10:0.5 11:3.0 12:1.0 14:1.5 18:0.5 24:1.0 25:4.5 26:1.0 29:0.5 30:0.5 32:2.5 33:0.5 35:2.0 36:0.5 38:1.0 49:4.0 50:1.0 56:2.0 59:1.0 62:1.0 73:3.5 74:1.0 78:0.5 80:1.5 81:0.5 83:1.5 84:0.5 86:1.0 96:1.0 97:4.0 98:1.0 104:1.0 107:1.0 145:2.0 152:1.0 155:1.0 158:1.0 
1.0 0.0 0.3569307539704528 0.0 0:1.0 1:2.0 6:2.0 7:0.5 8:2.0 9:3.5 10:2.0 11:4.5 12:5.0 13:2.5 14:4.0 25:0.5 33:0.5 35:1.0 36:0.5 37:0.5 38:0.5 57:1.0 59:1.0 60:1.0 61:1.0 62:1.0 72:0.5 73:1.5 78:1.0 80:1.0 81:2.0 82:1.0 83:2.5 84:3.5 85:1.0 86:2.0 97:1.0 105:1.0 107:2.0 108:2.0 109:1.0 110:1.0 155:1.0 156:1.0 158:1.0 
0.5254549931628619 0.0 1.0 0.0 7:1.0 9:1.0 10:5.5 11:3.0 13:0.5 14:0.5 31:2.0 33:0.5 34:6.5 35:3.0 55:1.0 58:4.0 59:2.0 79:1.0 81:0.5 82:5.5 83:2.0 103:1.0 106:5.0 107:2.0 130:3.0 151:1.0 154:5.0 155:2.0 
0.0 0.0 1.0 0.0 1:7.0 9:0.5 10:1.0 11:1.5 18:0.5 25:1.0 33:0.5 35:0.5 49:1.0 59:1.0 73:1.0 81:0.5 82:0.5 83:1.5 97:1.0 107:1.0 155:1.0 
1.0 0.0 1.0 0.0 2:4.5 9:5.5 10:3.5 11:3.0 12:0.5 13:0.5 14:3.5 26:0.5 33:2.0 34:1.5 35:2.5 38:0.5 50:1.0 57:2.0 58:1.0 59:2.0 62:1.0 74:1.0 81:3.5 82:2.5 83:4.0 84:0.5 85:0.5 86:2.5 98:1.0 105:2.0 106:1.0 107:2.0 110:1.0 131:1.0 146:1.0 153:1.0 154:1.0 155:1.0 158:1.0 
0.0 0.0 0.9471277989633768 0.0 2:6.5 6:0.5 7:2.5 8:2.0 9:0.5 10:3.5 11:2.0 14:0.5 26:4.0 30:0.5 31:2.0 32:3.0 33:0.5 34:2.5 35:2.0 50:2.0 55:1.0 56:2.0 58:1.0 59:1.0 74:1.0 79:0.5 80:1.5 82:0.5 83:0.5 98:1.0 103:1.0 104:1.0 106:1.0 146:2.0 151:1.0 152:1.0 154:1.0 155:1.0 
0.0 0.8334794821507462 0.0 0.0 0:7.0 1:2.0 12:0.5 14:1.5 24:3.0 25:5.0 36:1.5 38:3.0 49:1.0 62:1.0 72:1.5 73:3.0 81:0.5 84:0.5 86:1.5 96:1.0 97:2.0 110:1.0 120:1.0 121:4.0 134:1.0 144:2.0 145:2.0 156:1.0 158:2.0 
1.0 1.0 1.0 0.38460115618695084 2:4.0 6:0.5 7:0.5 8:2.0 9:1.0 10:1.5 11:3.5 12:0.5 13:0.5 14:2.0 26:2.0 30:1.0 31:1.0 32:2.5 33:1.0 34:1.5 35:4.0 38:0.5 50:2.0 56:1.0 57:1.0 58:1.0 59:3.0 74:3.0 78:1.0 79:0.5 80:3.0 81:0.5 82:2.0 83:4.0 86:1.0 98:2.0 104:2.0 106:1.0 107:3.0 128:1.0 131:1.0 146:2.0 150:1.0 151:1.0 152:2.0 153:1.0 154:1.0 155:3.0 158:1.0 
1.0 0.0 1.0 0.0 0:1.5 1:3.5 6:0.5 9:1.5 10:1.5 11:1.0 12:3.0 13:4.0 14:4.5 24:1.0 25:3.5 30:0.5 33:2.0 34:2.0 35:1.0 36:3.0 37:3.5 38:3.5 49:1.0 57:1.0 58:1.0 60:2.0 61:3.0 62:2.0 72:0.5 73:1.0 81:1.0 82:1.0 83:0.5 84:1.5 85:2.5 86:1.5 96:1.0 97:3.0 105:1.0 108:1.0 109:1.0 110:2.0 145:1.0 153:1.0 154:1.0 156:1.0 157:2.0 158:1.0 
0.0 0.0 1.0 0.0 2:2.0 9:1.0 10:1.5 11:1.5 12:3.0 13:4.5 14:4.0 33:0.5 34:0.5 35:0.5 36:0.5 37:2.0 38:2.5 58:1.0 59:1.0 60:1.0 61:3.0 62:4.0 74:1.0 81:0.5 82:1.0 83:2.0 84:2.5 85:4.5 86:4.5 107:1.0 108:1.0 109:3.0 110:3.0 154:1.0 155:1.0 156:2.0 157:3.0 158:2.0 
1.0 0.0 1.0 0.0 0:2.0 1:4.0 2:1.5 3:0.5 6:1.0 8:1.0 9:2.0 10:0.5 11:4.0 12:3.5 13:2.5 14:5.0 25:1.5 30:1.0 32:0.5 33:0.5 35:1.0 36:1.0 37:0.5 38:2.0 49:2.0 57:1.0 59:1.0 60:1.0 61:1.0 62:2.0 72:1.0 73:2.0 74:0.5 78:0.5 80:0.5 81:1.0 82:0.5 83:3.5 84:1.0 85:0.5 86:2.0 97:1.0 107:1.0 108:1.0 109:1.0 110:2.0 145:1.0 155:1.0 158:1.0 
0.41955886728589065 0.0 0.0 0.0 0:6.5 1:0.5 6:1.5 7:2.5 8:2.0 9:1.5 10:2.5 11:2.0 24:1.0 25:0.5 30:1.5 31:3.5 32:3.0 33:2.0 34:3.0 35:3.0 48:1.0 54:1.0 55:1.0 56:1.0 57:1.0 58:1.0 59:1.0 72:1.0 73:0.5 78:0.5 79:0.5 80:0.5 81:1.0 82:0.5 83:0.5 96:1.0 102:1.0 103:2.0 104:1.0 105:1.0 106:1.0 107:1.0 144:1.0 150:1.0 151:2.0 152:1.0 153:1.0 154:2.0 155:1.0 
1.0 1.0 1.0 0.0 0:2.0 1:0.5 2:2.0 6:1.0 7:0.5 8:1.5 9:2.0 10:2.5 11:4.0 12:0.5 13:0.5 14:1.5 24:1.5 25:1.0 26:1.5 30:1.0 31:0.5 32:1.5 33:3.0 34:3.5 35:5.5 38:1.5 50:1.0 56:1.0 57:1.0 58:2.0 59:3.0 62:1.0 72:1.0 73:0.5 74:0.5 78:1.0 79:0.5 80:0.5 81:2.0 82:1.5 83:3.5 86:0.5 96:1.0 98:1.0 104:1.0 105:2.0 106:1.0 107:3.0 110:1.0 129:1.0 131:1.0 144:1.0 146:1.0 150:1.0 152:1.0 153:2.0 154:2.0 155:3.0 158:1.0 
0.15766682506407365 0.0 1.0 0.0 0:0.5 1:1.5 2:2.0 9:0.5 10:4.5 11:4.5 12:0.5 13:0.5 14:2.0 17:0.5 18:0.5 20:0.5 25:1.5 26:0.5 34:2.5 35:3.0 38:0.5 49:1.0 58:3.0 59:3.0 73:2.5 74:1.0 81:0.5 82:3.5 83:5.0 86:1.0 90:0.5 97:2.0 106:2.0 107:3.0 121:1.0 131:1.0 145:2.0 146:1.0 154:2.0 155:3.0 158:1.0 
0.0 0.0 0.8379976669566765 0.0 1:7.0 9:1.0 10:1.5 11:3.5 25:1.0 33:1.0 34:0.5 35:2.5 59:1.0 73:0.5 81:0.5 83:1.0 97:1.0 107:1.0 155:1.0 
0.0 0.46718249418018176 0.0 0.0 0:1.0 1:1.5 2:2.0 3:0.5 5:0.5 6:0.5 8:0.5 9:0.5 10:0.5 11:0.5 12:4.0 13:2.0 14:3.0 15:0.5 24:1.0 25:2.5 26:1.5 27:0.5 29:0.5 30:1.0 32:1.0 33:1.0 35:1.0 36:5.0 37:3.0 38:4.0 49:1.0 50:1.0 60:2.0 61:1.0 62:2.0 72:0.5 73:1.0 74:0.5 80:0.5 84:2.5 85:2.0 86:2.5 97:1.0 98:1.0 108:2.0 109:1.0 110:2.0 132:1.0 134:1.0 144:1.0 145:2.0 146:1.0 155:1.0 156:3.0 157:2.0 158:2.0 
0.430139461028473 0.0 1.0 0.0 0:2.0 1:1.0 2:2.0 6:2.5 7:2.0 8:0.5 9:3.0 10:2.5 11:0.5 15:3.5 16:0.5 17:0.5 18:2.5 19:0.5 20:1.0 24:1.5 25:1.5 26:0.5 39:2.5 42:4.0 43:1.0 44:1.5 48:1.0 49:1.0 63:1.0 66:1.0 72:1.5 73:1.5 74:0.5 80:0.5 81:0.5 83:0.5 87:3.0 88:0.5 90:4.0 91:0.5 92:0.5 96:1.0 97:1.0 111:1.0 114:1.0 121:1.0 135:1.0 138:3.0 144:1.0 145:1.0 146:1.0 153:1.0 159:2.0 162:2.0 164:1.0 
1.0 1.0 1.0 0.07686877110528156 0:4.0 1:2.5 2:2.0 8:0.5 9:1.0 10:0.5 11:3.0 12:1.5 13:1.0 14:5.0 15:0.5 18:3.5 24:1.0 25:1.5 35:1.5 36:0.5 37:0.5 38:1.5 49:1.0 59:2.0 62:1.0 72:1.0 73:4.0 74:1.0 81:0.5 82:0.5 83:3.0 84:1.0 85:0.5 86:3.0 87:0.5 90:1.0 97:2.0 107:2.0 110:1.0 121:1.0 144:1.0 145:2.0 146:1.0 153:1.0 155:2.0 158:1.0 162:1.0 
0.0 0.0 1.0 0.0 0:2.0 1:6.5 2:1.5 3:0.5 11:1.5 12:2.0 13:0.5 14:5.5 18:3.0 20:0.5 21:0.5 25:1.5 35:0.5 38:1.0 48:1.0 49:1.0 62:1.0 72:1.5 73:3.0 75:0.5 84:0.5 86:2.0 96:1.0 97:1.0 110:2.0 145:1.0 158:2.0 
0.0 0.0 0.5985510814572033 0.0 0:6.0 1:6.0 2:2.0 6:0.5 8:4.5 9:0.5 11:3.0 24:1.0 25:2.5 26:0.5 32:2.0 33:0.5 35:1.5 49:1.0 56:1.0 72:1.0 73:2.5 80:1.0 81:0.5 83:0.5 97:1.0 104:1.0 121:1.0 144:1.0 145:1.0 152:2.0 155:1.0 
1.0 0.0 1.0 0.0 1:0.5 9:1.0 10:0.5 11:1.0 12:4.5 13:2.5 14:4.5 33:1.0 35:1.0 36:3.0 37:1.5 38:3.0 59:1.0 60:2.0 61:1.0 62:3.0 73:0.5 81:2.0 82:0.5 83:2.0 84:4.0 85:2.5 86:5.0 105:1.0 107:1.0 108:2.0 109:1.0 110:2.0 132:1.0 134:1.0 153:1.0 155:1.0 156:3.0 157:2.0 158:3.0 
1.0 0.0 1.0 0.0 2:2.5 6:2.5 7:1.5 8:0.5 9:1.0 10:1.0 11:2.5 12:1.0 13:2.5 14:5.0 26:0.5 30:0.5 31:0.5 35:1.5 36:0.5 37:0.5 38:2.5 50:1.0 54:1.0 55:1.0 59:1.0 62:2.0 74:1.5 78:2.0 79:1.0 80:1.0 81:1.0 82:1.5 83:3.5 84:0.5 85:1.0 86:4.0 102:1.0 107:1.0 109:1.0 110:3.0 146:1.0 150:1.0 151:1.0 153:1.0 154:1.0 155:1.0 157:1.0 158:3.0 
0.0 0.0 0.0 0.7826274655292634 0:0.5 1:1.5 2:0.5 8:1.5 9:3.5 10:4.0 11:6.0 12:2.0 13:4.0 14:4.0 25:0.5 35:0.5 36:0.5 37:1.0 38:1.5 61:1.0 62:2.0 73:0.5 83:0.5 84:1.0 85:3.0 86:3.0 109:1.0 110:2.0 155:1.0 156:1.0 157:2.0 158:2.0 
0.0 0.0 0.0 1.0 1:5.0 6:1.0 8:0.5 12:2.0 13:1.5 14:2.5 25:7.0 30:1.0 32:0.5 49:5.0 54:1.0 73:6.5 78:0.5 84:1.0 85:1.0 86:1.5 97:5.0 102:1.0 121:4.0 145:6.0 150:1.0 
0.0 0.0 0.0 0.40517612103934914 6:3.5 7:4.0 8:4.5 9:0.5 10:1.0 11:2.0 12:0.5 13:0.5 14:2.0 30:3.0 31:3.0 32:5.0 33:0.5 34:0.5 35:1.5 38:0.5 54:1.0 55:2.0 56:3.0 78:2.0 79:2.0 80:3.5 83:0.5 102:2.0 103:2.0 104:3.0 128:1.0 150:3.0 151:3.0 152:4.0 155:1.0 
0.0 1.0 1.0 1.0 0:0.5 1:5.0 2:1.5 8:0.5 9:2.0 10:0.5 11:3.0 12:1.0 14:2.0 18:0.5 24:0.5 25:3.5 26:0.5 33:0.5 35:1.5 38:1.5 49:3.0 50:1.0 57:1.0 59:1.0 62:1.0 73:4.5 74:1.5 80:0.5 81:1.0 83:2.5 84:0.5 86:2.5 97:3.0 98:1.0 107:1.0 110:1.0 121:1.0 145:4.0 146:1.0 153:1.0 155:1.0 158:2.0 
1.0 1.0 1.0 1.0 0:0.5 1:4.0 2:2.5 3:0.5 5:0.5 6:0.5 8:0.5 9:0.5 11:0.5 12:1.0 14:0.5 20:1.0 23:1.0 24:0.5 25:6.0 26:1.5 27:1.0 29:1.0 32:0.5 33:0.5 36:0.5 44:0.5 45:0.5 47:1.0 49:3.0 50:1.0 53:1.0 72:0.5 73:6.0 74:2.0 75:1.0 77:1.5 78:0.5 80:0.5 81:0.5 83:0.5 84:1.0 86:0.5 92:0.5 95:0.5 97:3.0 98:1.0 101:1.0 121:5.0 125:1.0 145:4.0 146:2.0 147:1.0 149:1.0 153:1.0 156:1.0 158:1.0 164:1.0 167:1.0 
1.0 0.0 0.0 0.0 0:1.0 1:1.5 9:2.0 10:1.5 11:1.0 12:4.5 13:3.0 14:4.5 15:1.0 17:0.5 24:1.0 25:1.0 33:2.0 34:1.5 35:1.5 36:4.0 37:2.5 38:3.5 48:1.0 49:1.0 57:2.0 58:1.0 59:1.0 60:3.0 61:2.0 62:2.0 72:0.5 73:0.5 81:1.0 82:0.5 83:0.5 84:2.5 85:1.0 86:1.5 87:0.5 105:1.0 108:3.0 109:1.0 110:2.0 145:1.0 153:1.0 154:1.0 155:1.0 156:3.0 157:2.0 158:2.0 
1.0 1.0 1.0 0.0 1:1.0 2:0.5 9:0.5 10:1.0 11:2.0 12:0.5 14:2.0 15:0.5 17:0.5 18:6.5 19:4.5 20:2.0 25:2.0 26:0.5 33:0.5 34:1.0 35:2.0 36:1.5 38:3.0 39:1.5 41:1.5 42:3.0 43:1.0 44:2.0 73:0.5 83:0.5 86:0.5 90:0.5 110:1.0 114:1.0 155:1.0 158:1.0 162:1.0 
1.0 1.0 1.0 1.0 0:0.5 1:4.5 2:3.0 5:0.5 12:0.5 14:0.5 17:0.5 18:3.0 19:1.5 20:2.5 25:5.5 26:2.0 42:1.5 44:1.5 49:3.0 50:2.0 66:1.0 68:1.0 73:5.0 74:3.0 89:0.5 90:2.5 91:0.5 92:2.5 97:3.0 98:2.0 114:1.0 116:1.0 121:3.0 122:1.0 138:1.0 140:1.0 145:4.0 146:2.0 162:1.0 164:2.0 
1.0 0.0 1.0 0.0 1:2.0 2:6.0 5:4.5 8:1.5 11:0.5 12:2.5 13:1.0 14:4.0 15:2.0 17:2.0 25:1.0 36:0.5 38:0.5 39:0.5 62:1.0 73:1.5 74:1.0 77:0.5 83:0.5 84:1.5 85:0.5 86:3.0 87:1.0 89:1.0 97:1.0 98:1.0 108:1.0 110:2.0 111:1.0 113:1.0 145:1.0 156:1.0 158:2.0 159:1.0 161:1.0 
0.0 0.0 0.8563100890273292 0.0 0:6.5 1:0.5 3:0.5 5:2.0 6:1.5 7:1.0 8:3.5 9:1.0 10:1.0 11:2.0 18:1.0 24:1.0 25:1.5 29:1.0 30:1.5 31:1.0 32:3.5 33:0.5 34:0.5 35:2.5 54:1.0 56:2.0 59:1.0 72:0.5 73:0.5 78:0.5 80:1.0 81:0.5 83:1.0 96:1.0 97:1.0 102:1.0 104:2.0 107:1.0 144:1.0 150:1.0 151:1.0 152:2.0 153:1.0 155:2.0 
0.8646261971083113 0.0 1.0 0.0 1:1.0 2:5.5 8:0.5 9:1.0 10:1.0 11:4.0 12:1.0 13:0.5 14:4.5 25:1.5 26:3.5 33:0.5 34:0.5 35:4.0 36:0.5 38:3.0 50:2.0 59:2.0 62:2.0 73:0.5 74:2.5 81:0.5 82:0.5 83:1.5 86:1.5 98:2.0 107:2.0 110:2.0 146:2.0 153:1.0 155:2.0 158:2.0 
0.3251747259569788 0.0 1.0 0.27441782020042693 0:0.5 2:4.5 9:1.0 10:2.0 11:5.5 12:1.0 13:1.0 14:1.5 24:1.5 26:1.0 33:3.0 34:2.0 35:3.5 36:3.5 37:2.5 38:3.0 57:1.0 58:1.0 59:2.0 60:1.0 74:0.5 81:1.5 82:2.0 83:4.0 84:0.5 85:0.5 86:1.5 98:1.0 105:1.0 106:1.0 107:2.0 108:1.0 109:1.0 110:1.0 130:1.0 131:1.0 134:1.0 146:1.0 153:1.0 154:1.0 155:2.0 156:1.0 157:1.0 158:1.0 
0.0 0.0 1.0 0.0 0:0.5 1:3.5 2:7.0 3:0.5 12:1.5 13:0.5 14:3.0 25:3.0 26:1.0 27:0.5 36:1.5 38:2.0 49:2.0 50:1.0 60:1.0 62:2.0 73:1.5 74:0.5 84:1.0 86:2.0 97:2.0 98:1.0 108:1.0 110:2.0 145:2.0 146:1.0 156:1.0 158:2.0 
1.0 0.0 1.0 0.0 0:0.5 1:0.5 2:3.5 6:1.0 7:0.5 8:0.5 9:3.0 10:2.5 11:4.0 12:1.5 13:0.5 14:2.5 26:1.0 33:2.5 34:1.5 35:3.0 36:0.5 38:1.0 57:1.0 58:1.0 59:2.0 62:1.0 72:0.5 73:0.5 74:0.5 78:0.5 79:0.5 80:0.5 81:3.0 82:2.5 83:4.5 84:1.0 85:0.5 86:1.5 98:1.0 102:1.0 104:1.0 105:2.0 106:2.0 107:3.0 108:1.0 110:1.0 129:1.0 130:1.0 131:1.0 146:1.0 153:2.0 154:1.0 155:2.0 156:1.0 158:1.0 
0.0 0.21236202187933725 0.0 0.0 0:6.5 1:1.5 2:0.5 9:1.0 10:1.5 11:2.5 18:0.5 24:3.5 25:4.0 26:0.5 33:5.0 34:2.5 35:5.0 36:0.5 38:0.5 48:1.0 49:1.0 57:1.0 59:1.0 72:1.0 73:1.5 81:1.5 83:1.5 96:1.0 97:1.0 105:1.0 106:1.0 107:2.0 120:1.0 121:2.0 129:1.0 131:1.0 144:2.0 145:1.0 153:1.0 154:1.0 155:2.0 
1.0 0.12581579646087318 1.0 1.0 0:1.0 1:2.5 2:2.0 3:0.5 6:3.5 7:1.0 8:2.0 9:2.5 10:1.5 11:4.5 12:0.5 14:2.0 24:0.5 25:2.5 26:0.5 30:4.0 31:0.5 32:2.5 33:3.0 34:1.0 35:4.5 38:1.0 49:1.0 54:2.0 56:1.0 57:2.0 58:1.0 59:3.0 73:0.5 78:2.0 80:0.5 81:1.0 82:0.5 83:1.0 86:0.5 97:1.0 102:2.0 104:1.0 105:1.0 107:2.0 145:1.0 150:2.0 152:1.0 153:1.0 155:2.0 
1.0 0.0 0.0 0.0 0:0.5 1:2.5 2:0.5 9:2.0 10:1.5 11:2.0 12:5.0 13:4.0 14:6.0 33:0.5 35:0.5 36:0.5 37:0.5 38:1.0 60:2.0 61:1.0 62:2.0 73:1.5 81:1.0 82:0.5 83:1.0 84:2.5 85:1.5 86:3.0 108:1.0 109:1.0 110:1.0 156:1.0 157:1.0 158:1.0 
0.0 0.0 0.8712979343100962 0.0 0:7.0 1:0.5 2:2.5 12:0.5 14:4.5 24:1.5 25:2.5 26:1.5 36:1.5 38:4.5 48:1.0 50:1.0 62:2.0 72:1.5 73:1.0 74:0.5 81:0.5 84:0.5 86:2.0 96:1.0 97:1.0 98:1.0 110:3.0 121:1.0 134:1.0 144:1.0 146:1.0 158:2.0 
0.0 1.0 0.5155880204080733 0.0 0:6.0 1:1.0 9:1.5 10:1.0 11:3.5 14:0.5 18:1.0 24:2.5 25:4.0 33:3.5 34:1.5 35:5.0 48:1.0 49:1.0 57:1.0 59:2.0 72:0.5 73:2.0 81:1.5 82:0.5 83:3.5 96:1.0 97:2.0 105:1.0 107:2.0 120:1.0 121:3.0 129:1.0 131:3.0 144:2.0 145:1.0 153:2.0 154:1.0 155:3.0 
0.20765664161354014 1.0 1.0 0.0 0:1.0 1:1.0 9:1.0 10:2.0 11:3.0 12:3.0 13:3.0 14:3.5 15:1.0 18:0.5 24:0.5 25:1.5 33:1.0 34:0.5 35:1.5 36:2.0 37:1.5 38:2.0 39:0.5 48:1.0 49:1.0 57:1.0 58:1.0 59:1.0 60:2.0 61:1.0 62:2.0 63:1.0 72:1.5 73:2.0 81:1.5 82:1.5 83:3.0 84:3.0 85:2.5 86:4.0 87:1.5 90:0.5 97:1.0 106:1.0 107:2.0 108:2.0 109:2.0 110:2.0 121:1.0 132:1.0 134:1.0 144:1.0 145:1.0 153:1.0 154:1.0 155:2.0 156:2.0 157:2.0 158:2.0 
1.0 0.0 1.0 0.0 0:0.5 1:3.5 2:3.0 5:0.5 6:1.5 8:3.0 9:1.0 10:0.5 11:2.0 12:2.0 13:1.0 14:4.0 23:0.5 25:2.0 26:1.0 30:0.5 32:1.5 33:1.0 35:1.5 36:0.5 38:1.0 49:2.0 50:1.0 54:1.0 56:2.0 57:1.0 59:1.0 60:1.0 62:2.0 72:1.0 73:3.5 74:1.5 77:0.5 78:1.0 80:2.5 81:1.0 83:2.0 84:1.0 86:2.5 97:2.0 98:1.0 102:1.0 104:2.0 107:1.0 110:1.0 145:2.0 146:1.0 150:1.0 152:1.0 153:1.0 155:1.0 156:1.0 158:1.0 
1.0 0.0 1.0 0.0 1:1.5 2:5.0 6:2.0 7:3.5 8:1.5 9:1.5 10:3.0 11:3.0 14:3.5 25:1.5 26:3.5 30:1.0 31:1.5 32:2.0 33:1.0 34:1.5 35:4.5 38:2.0 49:1.0 50:2.0 56:1.0 59:2.0 62:1.0 73:1.5 74:1.0 80:0.5 82:0.5 83:2.0 86:0.5 97:1.0 98:2.0 104:1.0 106:1.0 107:2.0 110:1.0 131:1.0 146:1.0 151:1.0 152:1.0 154:1.0 155:2.0 158:1.0 
0.0 1.0 0.0 1.0 1:5.0 6:0.5 7:0.5 8:1.0 9:0.5 10:0.5 11:2.0 12:0.5 13:0.5 14:2.0 25:6.5 30:0.5 32:1.0 33:0.5 34:0.5 35:2.0 38:1.0 49:4.0 59:1.0 73:4.5 83:0.5 97:5.0 107:1.0 121:2.0 145:6.0 152:1.0 155:1.0 158:1.0 
0.0 1.0 1.0 0.39217546176925827 0:0.5 1:2.5 2:0.5 9:0.5 11:0.5 12:2.0 13:1.5 14:3.0 15:1.0 17:1.0 24:1.0 25:5.5 26:1.0 36:4.0 37:2.5 38:6.0 39:1.5 40:0.5 41:1.5 49:2.0 60:2.0 61:1.0 62:2.0 73:2.0 84:2.0 85:0.5 86:2.5 97:2.0 108:2.0 109:1.0 110:3.0 121:3.0 132:1.0 134:1.0 145:3.0 156:2.0 157:1.0 158:3.0 159:1.0 161:1.0 
0.0 0.0 0.0 0.5098267901799868 2:4.0 6:6.5 7:6.0 8:3.0 11:2.5 26:0.5 30:1.0 31:1.5 32:2.0 35:0.5 55:1.0 56:1.0 79:1.0 80:0.5 104:1.0 146:1.0 150:1.0 151:1.0 152:1.0 
0.0 0.9525276268060608 0.0 1.0 6:3.5 7:3.5 8:4.5 9:0.5 10:0.5 11:2.0 12:0.5 13:0.5 14:2.0 30:3.0 31:3.0 32:5.0 34:0.5 35:1.5 38:0.5 54:2.0 55:2.0 56:3.0 78:2.0 79:2.0 80:3.5 83:0.5 102:1.0 103:1.0 104:3.0 107:1.0 128:1.0 150:3.0 151:3.0 152:4.0 155:1.0 158:1.0 
0.04015078044345494 0.0 1.0 0.0 0:2.0 1:2.0 2:1.0 3:3.0 6:5.5 7:1.0 8:2.5 9:1.5 10:1.5 11:4.0 13:1.5 14:2.0 25:0.5 30:2.5 31:0.5 32:1.5 33:1.5 34:1.5 35:3.0 38:0.5 54:2.0 56:1.0 59:2.0 75:0.5 78:2.0 79:0.5 80:1.5 81:0.5 82:0.5 83:1.5 102:2.0 104:1.0 107:2.0 150:1.0 152:1.0 155:2.0 
0.0 0.0 1.0 0.0 0:0.5 1:1.0 2:1.5 6:0.5 9:2.0 10:3.0 11:3.5 12:1.0 13:3.5 14:5.0 33:1.0 34:2.0 35:1.5 36:0.5 37:2.5 38:1.5 57:1.0 58:1.0 59:2.0 61:2.0 62:2.0 73:0.5 74:0.5 78:0.5 81:1.5 82:1.5 83:2.5 84:1.0 85:2.5 86:3.5 105:1.0 106:2.0 107:1.0 109:2.0 110:2.0 153:1.0 154:2.0 155:2.0 157:2.0 158:2.0 
0.0 0.0 1.0 0.0 1:7.0 2:2.0 8:2.0 9:5.0 11:4.0 12:2.0 14:1.0 35:1.0 83:0.5 
1.0 0.0 0.0 0.0 0:0.5 1:2.0 2:3.5 6:0.5 9:2.5 10:1.0 11:2.5 12:3.0 13:4.5 14:5.5 25:0.5 26:0.5 33:1.0 34:0.5 35:1.0 36:1.5 37:1.5 38:2.5 49:1.0 57:1.0 59:1.0 60:2.0 61:1.0 62:2.0 72:0.5 73:1.0 74:0.5 81:1.5 82:0.5 83:1.0 84:2.0 85:1.5 86:2.5 97:1.0 105:1.0 107:1.0 108:2.0 109:1.0 110:2.0 156:1.0 157:1.0 158:1.0 
1.0 0.9818846006530999 0.0 0.0 0:0.5 1:1.0 2:0.5 6:1.0 7:0.5 8:1.0 9:1.0 10:0.5 11:1.5 12:3.5 13:2.5 14:4.5 24:1.0 25:1.5 30:1.0 31:1.0 32:1.0 33:1.5 34:1.0 35:2.0 36:3.0 37:2.0 38:4.5 54:1.0 57:1.0 59:1.0 60:2.0 61:1.0 62:3.0 73:0.5 78:1.0 79:0.5 80:0.5 81:0.5 82:0.5 83:1.5 84:2.0 85:1.0 86:2.5 105:1.0 107:1.0 108:1.0 109:1.0 110:2.0 134:1.0 145:1.0 150:1.0 151:1.0 152:1.0 153:1.0 154:1.0 155:1.0 156:2.0 157:1.0 158:3.0 
0.0 0.0 1.0 0.0 2:5.0 8:0.5 9:1.5 10:3.5 11:4.0 12:0.5 13:0.5 14:1.5 26:3.5 32:1.0 33:2.0 34:4.0 35:5.5 36:0.5 37:0.5 38:3.0 50:2.0 57:1.0 58:2.0 59:3.0 62:1.0 74:1.5 81:0.5 82:1.5 83:3.0 86:1.5 98:2.0 106:1.0 107:2.0 110:1.0 131:1.0 134:1.0 146:2.0 152:1.0 153:1.0 154:2.0 155:3.0 158:2.0 
0.0 0.0 1.0 0.0 0:0.5 1:1.0 2:0.5 3:1.0 5:1.0 6:3.5 7:1.0 8:3.5 9:1.5 10:3.5 11:4.0 12:1.0 13:3.0 14:4.0 25:0.5 29:0.5 30:0.5 32:0.5 33:1.0 34:1.0 35:1.5 36:0.5 37:0.5 38:1.5 54:1.0 56:1.0 57:1.0 58:1.0 59:2.0 61:1.0 62:1.0 73:0.5 78:1.0 79:0.5 80:1.0 81:1.0 82:1.5 83:2.0 84:1.0 85:1.5 86:2.0 105:1.0 106:1.0 107:1.0 108:1.0 109:1.0 110:2.0 150:1.0 153:1.0 154:1.0 155:2.0 156:1.0 157:1.0 158:1.0 
0.0 0.0 1.0 0.0 0:0.5 9:2.0 10:2.0 11:3.0 12:2.5 13:4.0 14:5.0 33:3.0 34:2.5 35:3.0 36:3.0 37:4.0 38:4.5 57:1.0 58:1.0 59:1.0 60:1.0 61:2.0 62:2.0 81:0.5 82:0.5 83:0.5 84:0.5 85:1.0 86:1.5 105:1.0 106:1.0 107:2.0 108:1.0 109:2.0 110:3.0 153:1.0 154:1.0 155:1.0 156:1.0 157:1.0 158:2.0 
0.0 0.9934054692138036 0.0 0.0 0:0.5 1:4.5 2:0.5 6:2.5 8:1.0 9:1.0 11:0.5 12:2.0 13:1.0 14:3.0 24:0.5 25:4.0 30:2.5 32:1.0 33:1.0 35:0.5 36:1.5 38:1.5 49:3.0 54:2.0 57:1.0 60:1.0 62:1.0 73:5.0 78:3.0 80:1.5 81:1.5 83:0.5 84:1.5 85:0.5 86:2.5 97:3.0 102:2.0 104:1.0 105:1.0 108:1.0 110:1.0 121:1.0 126:1.0 145:4.0 150:2.0 152:1.0 153:1.0 156:1.0 157:1.0 158:2.0 
0.25631525676726996 0.0 0.0 0.0 2:0.5 6:2.0 7:1.0 8:2.0 9:2.0 10:2.5 11:3.5 12:1.5 13:3.0 14:2.5 30:1.5 31:0.5 32:1.0 33:1.5 34:2.0 35:2.5 36:1.5 37:1.5 38:1.5 54:1.0 56:1.0 57:1.0 58:1.0 59:2.0 60:1.0 61:1.0 62:1.0 78:2.5 79:1.0 80:1.5 81:2.0 82:2.0 83:2.5 84:1.5 85:2.0 86:1.5 102:1.0 104:1.0 105:1.0 106:1.0 107:2.0 108:1.0 109:1.0 110:1.0 150:1.0 151:1.0 152:1.0 153:2.0 154:2.0 155:2.0 156:1.0 157:2.0 158:2.0 
1.0 1.0 1.0 1.0 0:2.0 1:3.0 2:0.5 3:1.0 4:0.5 5:1.0 15:2.0 16:0.5 17:1.0 18:4.5 19:0.5 20:2.5 21:1.5 23:1.5 24:1.0 25:2.0 27:0.5 39:0.5 42:3.0 44:1.5 45:1.0 47:1.0 49:2.0 53:1.0 66:2.0 68:1.0 69:1.0 71:1.0 72:0.5 73:3.0 75:0.5 77:0.5 87:0.5 89:0.5 90:3.0 92:2.0 93:1.5 95:2.0 97:2.0 114:2.0 116:1.0 117:1.0 119:1.0 144:1.0 145:2.0 147:1.0 149:1.0 159:1.0 162:2.0 164:1.0 165:1.0 167:1.0 
1.0 0.0 1.0 1.0 2:2.0 6:0.5 7:0.5 8:0.5 9:4.0 10:4.5 11:6.0 12:1.0 13:1.0 14:2.5 26:0.5 33:2.0 34:1.0 35:2.5 36:0.5 37:0.5 38:1.0 57:1.0 58:1.0 59:2.0 60:1.0 62:1.0 81:1.0 82:0.5 83:1.5 84:0.5 85:0.5 86:1.0 105:1.0 106:1.0 107:2.0 110:1.0 153:1.0 154:1.0 155:2.0 158:1.0 
0.0 1.0 1.0 1.0 1:5.0 6:0.5 9:1.0 10:0.5 11:1.0 12:1.5 13:1.5 14:3.0 25:3.5 33:1.0 35:1.0 36:2.0 37:1.5 38:4.0 49:3.0 57:1.0 59:1.0 60:1.0 61:1.0 62:2.0 73:3.5 81:0.5 83:0.5 84:1.5 85:1.5 86:3.5 97:3.0 105:1.0 107:1.0 108:1.0 109:1.0 110:2.0 121:1.0 132:1.0 134:2.0 145:3.0 153:1.0 155:1.0 156:2.0 157:1.0 158:3.0 
0.0 0.0 1.0 0.0 0:1.5 2:4.0 3:0.5 6:0.5 7:0.5 8:0.5 9:2.5 10:3.5 11:3.0 12:1.0 13:1.5 14:2.5 24:0.5 26:0.5 33:1.0 34:1.0 35:1.5 38:0.5 57:1.0 58:1.0 59:1.0 72:2.0 74:1.0 75:0.5 78:1.0 79:0.5 80:0.5 81:3.0 82:4.5 83:4.0 84:1.0 85:3.0 86:2.0 96:1.0 105:1.0 106:2.0 107:2.0 109:1.0 110:1.0 131:1.0 144:1.0 146:1.0 153:1.0 154:2.0 155:2.0 157:1.0 158:1.0 
1.0 1.0 1.0 1.0 0:1.0 1:3.0 8:0.5 9:3.0 10:3.0 11:5.0 12:0.5 14:0.5 15:0.5 18:1.0 25:1.0 33:1.5 34:1.5 35:2.0 49:2.0 57:1.0 58:1.0 59:3.0 72:1.0 73:3.5 80:0.5 81:3.0 82:3.0 83:4.5 84:0.5 86:0.5 87:0.5 90:0.5 97:2.0 105:2.0 106:2.0 107:3.0 145:2.0 153:1.0 154:2.0 155:3.0 
0.0 0.0 0.6272890629455983 0.0 0:2.0 1:7.0 2:2.5 14:3.5 24:1.0 25:4.0 36:0.5 38:2.0 49:3.0 62:1.0 73:2.0 86:0.5 97:1.0 145:1.0 158:1.0 
0.0 0.0 1.0 0.0 0:0.5 2:5.5 8:0.5 9:0.5 10:3.5 11:4.5 14:1.5 26:3.0 31:0.5 32:1.5 33:0.5 34:2.0 35:4.0 38:1.0 50:1.0 58:1.0 59:2.0 74:2.0 80:0.5 81:0.5 82:2.5 83:3.5 98:1.0 106:2.0 107:2.0 130:1.0 131:1.0 146:2.0 154:2.0 155:3.0 158:1.0 
0.9083598031730651 0.0 1.0 1.0 0:3.0 1:4.0 2:1.0 6:4.5 7:0.5 8:2.5 9:3.0 11:2.0 12:1.5 13:1.0 14:1.0 24:1.0 25:2.5 30:2.5 32:1.0 33:2.0 35:1.0 48:1.0 49:3.0 54:3.0 56:1.0 57:2.0 59:1.0 72:1.5 73:1.5 78:1.5 80:1.0 81:2.0 83:0.5 84:3.0 85:1.0 86:1.0 96:1.0 97:2.0 102:2.0 104:1.0 105:1.0 107:1.0 144:1.0 145:2.0 150:2.0 152:1.0 153:1.0 155:1.0 156:1.0 158:1.0 
0.14514768426967792 1.0 0.0 1.0 0:6.0 1:4.0 2:4.5 8:4.0 11:3.0 24:1.0 25:4.0 26:2.5 32:2.0 35:1.5 48:1.0 49:1.0 50:1.0 72:2.0 73:2.5 74:0.5 80:0.5 83:0.5 97:1.0 121:2.0 144:1.0 145:2.0 146:2.0 152:2.0 155:1.0 
1.0 0.5790258756924999 0.0 0.8064341048772934 0:1.0 1:2.0 6:2.5 7:0.5 8:1.0 9:2.0 10:0.5 11:1.5 12:3.0 13:1.0 14:1.5 24:0.5 25:2.0 30:2.0 32:1.0 33:2.0 35:1.0 36:1.5 48:1.0 49:1.0 54:2.0 56:1.0 57:1.0 59:1.0 60:2.0 72:1.0 73:3.5 78:3.5 79:0.5 80:1.5 81:3.0 82:0.5 83:1.5 84:3.5 85:1.0 86:1.0 97:1.0 102:2.0 105:2.0 107:1.0 108:2.0 110:1.0 121:1.0 126:1.0 129:1.0 144:1.0 145:2.0 150:2.0 152:1.0 153:2.0 155:1.0 156:2.0 157:1.0 158:1.0 
1.0 0.0 1.0 1.0 1:0.5 2:2.5 6:0.5 7:0.5 8:2.0 9:4.0 10:5.0 11:5.0 26:1.0 32:0.5 33:1.0 34:1.0 35:3.5 57:1.0 58:1.0 59:2.0 74:0.5 78:0.5 80:1.0 81:2.5 82:2.5 83:3.5 98:1.0 104:1.0 105:1.0 106:1.0 107:3.0 152:1.0 153:1.0 154:1.0 155:2.0 
0.0 0.0 1.0 0.0 0:0.5 1:0.5 2:5.0 9:0.5 10:0.5 11:3.5 12:2.0 13:2.5 14:6.5 25:0.5 36:0.5 37:0.5 38:1.5 62:2.0 72:0.5 73:1.5 74:0.5 82:0.5 83:1.5 84:1.0 85:1.0 86:3.5 107:1.0 108:1.0 109:1.0 110:2.0 156:1.0 157:1.0 158:2.0 
1.0 1.0 1.0 1.0 0:2.0 1:5.5 6:0.5 8:0.5 9:1.0 11:1.0 12:1.5 13:0.5 14:1.5 18:1.0 20:0.5 21:0.5 24:0.5 25:6.0 30:1.0 33:1.0 35:0.5 42:1.0 49:4.0 72:1.0 73:6.0 78:0.5 81:0.5 83:0.5 84:1.5 85:0.5 86:1.5 90:0.5 96:1.0 97:4.0 105:1.0 121:3.0 144:1.0 145:5.0 150:1.0 153:1.0 155:1.0 162:1.0 
0.0 1.0 1.0 0.0 2:2.5 9:1.0 10:1.5 11:1.5 12:2.5 13:3.0 14:3.5 26:0.5 33:1.0 34:2.0 35:2.0 36:1.5 37:2.5 38:3.5 58:1.0 59:1.0 60:1.0 61:2.0 62:2.0 74:1.0 81:1.0 82:2.0 83:2.0 84:2.5 85:3.0 86:4.0 98:1.0 105:1.0 106:1.0 107:2.0 108:1.0 109:2.0 110:3.0 130:1.0 131:1.0 133:1.0 134:1.0 146:1.0 153:1.0 154:2.0 155:2.0 156:2.0 157:2.0 158:3.0 
0.0 1.0 0.0 0.12543268549157732 0:6.5 9:1.5 10:1.5 11:4.5 24:1.0 25:0.5 33:1.5 34:1.0 35:3.5 57:1.0 58:1.0 59:2.0 72:0.5 81:1.5 82:1.0 83:4.0 96:1.0 105:1.0 106:1.0 107:3.0 131:1.0 144:1.0 153:2.0 154:1.0 155:4.0 
1.0 0.0 0.28105761682645825 0.0 0:1.0 1:1.0 2:0.5 9:1.0 10:2.5 11:0.5 12:3.5 13:4.0 14:5.0 15:1.0 24:1.5 25:1.5 33:1.5 34:2.0 35:1.0 36:3.5 37:2.5 38:4.0 39:0.5 48:1.0 49:1.0 58:1.0 60:2.0 61:1.0 62:2.0 63:1.0 72:0.5 73:1.0 81:0.5 82:0.5 83:0.5 84:2.0 85:1.0 86:2.5 87:0.5 106:1.0 108:2.0 109:2.0 110:3.0 153:1.0 154:1.0 156:2.0 157:2.0 158:2.0 
0.0 0.0 0.41834441189318944 0.0 1:7.0 2:4.0 9:1.5 11:1.5 12:3.0 14:3.5 38:1.0 49:1.0 50:1.0 59:1.0 62:1.0 73:1.0 74:0.5 81:0.5 83:1.0 86:1.0 146:1.0 
0.0 0.0 1.0 1.0 1:5.0 2:5.0 8:0.5 9:1.0 10:0.5 11:4.0 12:1.5 14:3.0 25:5.0 26:3.0 33:0.5 35:3.0 36:0.5 38:2.5 49:2.0 50:1.0 59:1.0 62:1.0 73:2.5 74:1.0 83:1.0 84:0.5 86:1.0 97:3.0 98:2.0 107:2.0 110:1.0 121:1.0 145:3.0 146:1.0 155:1.0 158:1.0 
0.0 0.8918200528940086 0.0 1.0 1:3.0 2:0.5 6:4.5 8:4.0 11:0.5 12:0.5 14:1.5 15:2.5 17:1.5 25:3.0 30:4.5 32:4.0 38:1.0 39:1.0 41:0.5 49:2.0 54:2.0 56:2.0 63:1.0 73:1.0 78:1.5 80:2.0 84:0.5 86:1.0 87:1.0 89:0.5 97:1.0 102:2.0 104:2.0 111:1.0 145:2.0 150:3.0 152:3.0 158:1.0 159:1.0 161:1.0 
0.0 0.0 1.0 0.0 1:0.5 2:6.5 8:0.5 11:3.0 12:2.5 13:2.0 14:5.5 26:0.5 38:1.5 50:1.0 62:1.0 73:0.5 74:3.0 83:1.5 84:0.5 86:2.0 98:1.0 110:1.0 146:1.0 158:2.0 
1.0 1.0 1.0 0.0 1:1.0 9:1.5 10:0.5 11:1.5 12:3.0 13:2.0 14:4.5 15:0.5 17:0.5 25:1.0 33:2.0 34:0.5 35:2.0 36:2.5 37:1.0 38:3.0 57:1.0 59:2.0 60:2.0 61:1.0 62:3.0 73:1.0 81:2.0 82:0.5 83:3.0 84:3.0 85:2.0 86:4.0 97:1.0 105:1.0 107:1.0 108:2.0 109:1.0 110:2.0 129:1.0 131:1.0 132:1.0 134:1.0 145:1.0 153:2.0 154:1.0 155:2.0 156:2.0 157:1.0 158:3.0 
1.0 0.0 1.0 0.0 2:6.5 6:1.0 7:3.0 8:1.5 9:0.5 10:3.0 11:2.0 14:1.0 26:1.5 30:0.5 31:1.5 32:1.5 34:0.5 35:1.0 50:1.0 55:2.0 56:1.0 58:1.0 74:3.0 78:1.0 79:3.0 80:2.5 82:2.0 83:2.0 98:1.0 102:1.0 103:2.0 104:1.0 106:1.0 107:1.0 146:1.0 150:1.0 151:2.0 152:1.0 154:2.0 155:1.0 
0.0 0.0 1.0 0.0 1:3.5 2:7.0 11:0.5 12:2.0 14:3.5 15:0.5 17:1.0 20:0.5 25:1.0 26:1.0 36:0.5 38:1.5 49:1.0 62:1.0 73:2.5 74:2.5 84:0.5 86:2.0 89:0.5 97:1.0 110:1.0 145:1.0 146:1.0 156:1.0 158:1.0 
0.7336063288784087 0.0 1.0 0.0 2:1.5 9:1.5 10:1.5 11:1.5 12:2.5 13:3.0 14:4.0 33:1.0 34:1.0 35:1.0 36:1.5 37:1.5 38:3.0 57:1.0 58:1.0 59:1.0 60:1.0 61:1.0 62:2.0 74:0.5 81:2.0 82:2.5 83:3.5 84:3.0 85:4.0 86:5.0 106:1.0 107:1.0 108:1.0 109:2.0 110:3.0 130:1.0 131:1.0 132:1.0 133:1.0 134:1.0 146:1.0 153:1.0 154:1.0 155:1.0 156:2.0 157:2.0 158:3.0 
1.0 0.0 0.0 0.0 2:6.0 8:2.0 9:0.5 10:0.5 11:4.0 12:2.0 13:1.0 14:5.5 26:3.0 32:1.0 35:2.5 36:0.5 37:0.5 38:2.0 50:1.0 59:1.0 62:2.0 74:1.0 83:1.5 84:0.5 85:0.5 86:1.5 98:2.0 107:2.0 110:1.0 146:1.0 155:1.0 158:1.0 
1.0 1.0 1.0 1.0 0:0.5 2:1.5 6:1.5 7:1.5 8:3.0 9:2.0 10:2.0 11:2.5 26:0.5 30:2.0 31:2.0 32:4.0 33:2.0 34:1.5 35:2.0 50:1.0 54:2.0 55:2.0 56:3.0 57:1.0 59:1.0 74:1.5 78:3.0 79:3.0 80:6.0 81:1.5 82:1.0 83:2.5 98:1.0 102:1.0 103:1.0 104:3.0 105:1.0 106:1.0 107:2.0 126:1.0 127:1.0 128:3.0 146:1.0 150:2.0 151:2.0 152:3.0 153:1.0 154:1.0 155:2.0 
0.0 0.0 1.0 0.0 2:6.0 8:1.5 11:1.5 12:0.5 13:0.5 14:5.0 26:4.0 32:1.0 35:1.5 38:2.5 50:3.0 56:1.0 59:1.0 62:2.0 74:2.0 80:0.5 83:0.5 86:2.0 98:3.0 104:1.0 107:1.0 110:2.0 146:3.0 152:1.0 155:1.0 158:2.0 
0.0 0.0 1.0 0.0 1:1.5 2:7.0 9:0.5 10:1.5 11:2.0 13:1.0 14:1.5 26:0.5 33:0.5 34:1.0 35:1.0 37:0.5 38:1.5 58:1.0 59:1.0 61:1.0 62:1.0 74:1.5 81:0.5 82:2.0 83:2.0 85:0.5 86:1.5 98:1.0 106:1.0 107:1.0 110:1.0 146:1.0 153:1.0 154:1.0 155:1.0 157:1.0 158:1.0 
1.0 0.0 1.0 0.0 2:5.0 6:0.5 7:1.0 8:3.5 9:0.5 10:2.5 11:4.5 26:1.0 31:1.0 32:2.0 33:0.5 34:2.5 35:2.0 50:2.0 55:1.0 56:3.0 58:1.0 59:2.0 74:1.5 78:0.5 79:1.5 80:3.0 81:0.5 82:2.5 83:3.0 98:1.0 102:1.0 103:1.0 104:2.0 106:3.0 107:2.0 128:1.0 130:1.0 131:1.0 146:2.0 151:1.0 152:2.0 154:2.0 155:2.0 
0.2855035483039457 0.0 1.0 0.0 1:0.5 6:0.5 7:0.5 8:1.0 9:0.5 10:1.5 11:2.0 12:4.0 13:4.0 14:5.5 32:0.5 33:0.5 34:2.0 35:2.5 36:1.5 37:2.0 38:2.5 58:1.0 59:1.0 60:1.0 61:1.0 62:2.0 73:0.5 80:0.5 81:0.5 82:1.5 83:1.0 84:2.5 85:2.5 86:3.5 104:1.0 106:1.0 107:1.0 108:1.0 109:2.0 110:2.0 130:1.0 152:1.0 154:1.0 155:1.0 156:1.0 157:2.0 158:2.0 
0.0 1.0 0.36105685483264205 0.0 1:1.5 2:4.0 8:0.5 9:0.5 11:1.5 12:1.5 13:1.0 14:4.0 25:3.0 26:3.5 33:0.5 35:2.5 36:2.5 37:1.0 38:6.0 49:1.0 50:1.0 59:1.0 60:1.0 62:2.0 73:1.5 74:2.0 81:0.5 83:2.0 84:1.0 85:0.5 86:3.0 97:1.0 98:2.0 107:1.0 108:1.0 110:3.0 121:1.0 122:1.0 131:1.0 134:1.0 145:1.0 146:2.0 155:1.0 156:2.0 157:1.0 158:3.0 
0.0 0.0 1.0 0.0 1:0.5 9:0.5 12:4.5 13:5.0 14:5.0 36:2.0 37:1.5 38:2.5 60:2.0 61:3.0 62:3.0 72:0.5 73:0.5 84:3.0 85:3.0 86:3.5 108:2.0 109:3.0 110:3.0 156:2.0 157:2.0 158:2.0 
1.0 0.0 1.0 0.0 1:0.5 2:2.0 12:4.0 13:3.0 14:6.0 36:1.0 37:0.5 38:2.5 60:1.0 61:1.0 62:3.0 73:0.5 74:0.5 84:2.5 85:2.0 86:4.0 108:3.0 109:2.0 110:5.0 156:1.0 157:1.0 158:3.0 
1.0 0.0 1.0 0.0 2:2.5 6:1.0 7:1.0 8:2.5 9:2.0 10:2.5 11:5.0 12:1.0 13:4.5 14:4.0 26:0.5 32:0.5 33:0.5 34:0.5 35:2.0 36:0.5 37:1.0 38:1.5 50:1.0 56:1.0 57:1.0 58:1.0 59:3.0 61:1.0 62:2.0 74:1.5 78:0.5 79:0.5 80:1.5 81:1.0 82:1.0 83:3.5 84:0.5 85:1.5 86:2.0 105:1.0 106:1.0 107:3.0 109:1.0 110:1.0 155:1.0 157:1.0 158:1.0 
0.0 1.0 0.0 0.0 0:1.0 1:2.5 12:5.0 13:1.0 14:3.5 15:1.5 16:0.5 17:1.5 18:0.5 25:4.0 36:5.0 37:0.5 38:4.0 39:0.5 49:2.0 60:4.0 61:1.0 62:2.0 72:0.5 73:2.5 84:4.0 85:0.5 86:2.0 87:0.5 89:0.5 90:0.5 97:2.0 108:3.0 110:2.0 121:1.0 132:1.0 134:1.0 144:1.0 145:3.0 156:4.0 157:1.0 158:3.0 
1.0 1.0 1.0 0.6990216079206885 1:2.0 2:5.0 3:0.5 5:1.0 6:1.0 8:1.5 9:0.5 10:0.5 11:3.0 14:1.5 25:3.0 26:5.0 29:1.5 30:1.0 32:2.5 33:1.0 35:4.0 38:1.0 49:1.0 50:3.0 56:1.0 59:2.0 73:1.5 74:2.5 78:0.5 80:2.0 83:2.0 86:0.5 97:1.0 98:3.0 104:1.0 107:2.0 110:1.0 121:1.0 122:1.0 145:1.0 146:3.0 149:1.0 152:1.0 155:2.0 158:1.0 
1.0 0.0 1.0 0.0 0:3.5 1:2.5 2:1.5 12:2.0 13:1.0 14:5.0 15:1.5 16:1.0 17:3.5 18:1.0 20:0.5 24:1.5 25:2.5 36:1.0 38:2.0 39:0.5 41:1.0 48:1.0 49:2.0 62:1.0 72:1.5 73:3.5 74:0.5 84:1.0 86:2.5 87:1.0 88:0.5 89:2.5 90:0.5 96:1.0 97:2.0 108:1.0 110:2.0 111:1.0 113:1.0 120:1.0 121:1.0 144:2.0 145:2.0 156:1.0 158:2.0 159:1.0 161:1.0 
1.0 1.0 1.0 1.0 0:0.5 1:3.0 2:1.0 6:0.5 8:1.0 9:1.5 10:1.0 11:4.5 12:1.5 13:0.5 14:2.5 17:0.5 25:1.5 26:0.5 33:1.0 35:2.0 36:1.0 38:1.0 49:2.0 57:1.0 59:3.0 60:1.0 62:1.0 73:4.0 74:1.0 78:0.5 80:1.0 81:2.5 82:1.0 83:4.5 84:3.0 85:0.5 86:3.0 97:2.0 105:1.0 107:3.0 108:1.0 110:1.0 145:2.0 146:1.0 153:1.0 154:1.0 155:3.0 156:1.0 158:1.0 
1.0 0.0 1.0 0.0 0:2.5 1:5.0 2:3.0 9:1.0 11:1.0 12:3.0 13:1.0 14:5.5 15:0.5 17:2.0 24:1.5 25:3.5 26:0.5 33:1.0 35:1.0 36:2.0 38:3.0 49:2.0 60:1.0 62:2.0 72:1.5 73:1.0 81:0.5 83:0.5 84:2.0 85:0.5 86:1.5 96:1.0 97:2.0 108:1.0 110:2.0 144:1.0 145:1.0 153:1.0 156:1.0 158:1.0 
0.0 0.0 0.2230553986095875 0.0 2:5.5 8:2.0 9:1.0 10:1.0 11:2.5 12:1.0 13:1.0 14:4.0 26:3.0 31:0.5 32:1.5 33:1.5 34:1.5 35:3.5 36:1.5 37:1.5 38:4.0 50:1.0 59:1.0 62:2.0 74:1.5 80:0.5 81:0.5 82:0.5 83:2.0 84:0.5 85:0.5 86:2.0 98:2.0 104:1.0 107:2.0 110:2.0 131:1.0 146:2.0 152:1.0 153:1.0 154:1.0 155:2.0 156:1.0 157:1.0 158:2.0 
0.0 1.0 1.0 1.0 0:0.5 1:3.0 3:0.5 6:0.5 9:3.0 10:2.5 11:4.0 12:0.5 13:0.5 14:1.0 20:0.5 23:0.5 24:0.5 25:5.5 27:1.0 30:0.5 33:4.0 34:3.0 35:4.5 36:0.5 38:1.0 44:0.5 47:0.5 49:3.0 57:2.0 58:1.0 59:2.0 73:3.5 81:2.0 82:0.5 83:1.5 97:2.0 105:2.0 106:1.0 107:2.0 121:2.0 145:3.0 147:1.0 153:2.0 154:1.0 155:2.0 
0.0 0.0 0.43420363238962223 0.0 0:0.5 1:0.5 2:1.0 9:1.0 10:1.0 11:2.5 12:2.5 13:3.5 14:5.5 25:1.0 26:0.5 33:1.5 34:0.5 35:2.0 36:1.5 37:1.5 38:3.0 49:1.0 59:1.0 60:1.0 61:1.0 62:2.0 72:0.5 73:2.0 74:0.5 81:0.5 82:0.5 83:2.5 84:2.5 85:1.5 86:4.0 97:1.0 105:1.0 107:2.0 108:1.0 109:1.0 110:3.0 121:1.0 131:1.0 132:1.0 134:1.0 145:1.0 146:1.0 153:1.0 154:1.0 155:2.0 156:1.0 157:1.0 158:3.0 
1.0 0.0 1.0 0.0 0:0.5 1:4.5 2:1.5 6:3.0 7:0.5 8:4.0 9:1.5 10:1.0 11:3.0 12:2.5 13:1.0 14:3.5 25:1.0 30:0.5 32:0.5 33:1.0 35:1.0 36:0.5 38:1.0 49:2.0 54:1.0 56:1.0 57:1.0 59:1.0 60:1.0 62:1.0 73:3.0 74:0.5 78:1.5 80:2.0 81:2.0 82:0.5 83:2.5 84:1.5 85:0.5 86:2.0 97:1.0 102:1.0 104:1.0 105:1.0 107:1.0 108:1.0 110:2.0 145:1.0 152:1.0 153:1.0 155:1.0 156:1.0 158:1.0 
0.0 0.0 0.10861527893673671 0.0 0:1.0 1:1.0 2:2.5 11:1.0 12:3.5 13:3.5 14:6.0 24:1.0 25:2.5 26:1.0 35:1.5 36:1.5 37:1.0 38:4.5 49:1.0 60:1.0 61:1.0 62:3.0 73:1.0 74:0.5 83:0.5 84:1.0 85:1.0 86:2.0 96:1.0 97:1.0 98:1.0 108:1.0 109:1.0 110:2.0 121:1.0 144:1.0 145:1.0 146:1.0 156:1.0 157:1.0 158:2.0 
0.0 0.0 0.0 1.0 0:3.5 1:3.5 6:4.5 9:1.5 10:0.5 11:0.5 12:1.5 13:0.5 14:0.5 24:2.0 25:2.5 30:4.0 33:2.0 34:0.5 35:2.0 36:0.5 37:0.5 38:0.5 48:2.0 49:2.0 54:4.0 72:1.5 73:2.5 78:3.5 81:0.5 96:1.0 97:2.0 102:3.0 144:2.0 145:3.0 150:4.0 153:1.0 
1.0 1.0 1.0 1.0 2:0.5 6:2.0 7:1.0 8:2.0 9:1.0 10:2.0 11:2.0 26:0.5 30:4.5 31:2.5 32:4.5 33:2.5 34:2.5 35:4.5 54:2.0 55:1.0 56:2.0 57:1.0 58:1.0 59:2.0 78:2.5 79:1.5 80:3.5 81:1.5 82:1.5 83:3.0 86:0.5 102:2.0 103:1.0 104:2.0 105:1.0 106:1.0 107:2.0 126:2.0 127:1.0 128:3.0 129:1.0 130:1.0 131:3.0 150:3.0 151:2.0 152:3.0 153:2.0 154:2.0 155:2.0 
0.0 1.0 1.0 0.0 0:1.0 1:3.0 3:0.5 5:0.5 11:0.5 12:2.5 13:2.0 14:4.5 21:0.5 23:0.5 24:2.5 25:6.0 27:2.0 29:1.0 36:1.5 37:0.5 38:1.5 45:1.5 47:0.5 48:1.0 49:3.0 51:1.0 60:1.0 62:1.0 72:0.5 73:4.0 75:0.5 84:2.0 85:0.5 86:2.0 93:0.5 96:1.0 97:3.0 99:1.0 108:1.0 110:2.0 121:3.0 144:1.0 145:3.0 147:1.0 156:2.0 157:1.0 158:2.0 165:1.0 
0.0 1.0 1.0 1.0 0:1.0 1:5.0 2:0.5 6:1.5 8:1.0 9:1.5 11:0.5 12:0.5 14:1.5 25:6.0 30:2.0 32:1.0 33:1.5 35:1.0 36:0.5 38:2.0 49:4.0 54:1.0 62:1.0 73:4.0 78:0.5 81:0.5 86:0.5 97:5.0 102:1.0 110:1.0 121:2.0 145:5.0 150:1.0 152:1.0 153:1.0 158:1.0 
1.0 0.0 1.0 1.0 0:1.0 1:2.5 2:2.0 6:0.5 8:1.0 9:3.0 10:1.0 11:2.5 12:3.5 13:1.0 14:3.0 24:0.5 25:3.0 26:1.0 30:0.5 32:0.5 33:3.0 34:0.5 35:3.0 36:3.5 37:0.5 38:3.5 49:2.0 57:2.0 59:2.0 60:2.0 62:2.0 72:0.5 73:2.0 78:0.5 80:0.5 81:2.0 83:1.5 84:1.5 86:1.5 97:2.0 105:2.0 107:2.0 108:2.0 110:2.0 131:1.0 144:1.0 145:2.0 146:1.0 153:2.0 155:1.0 156:2.0 158:1.0 
0.0 1.0 0.0 0.0 0:1.0 1:3.0 2:2.0 9:1.0 10:0.5 11:1.0 12:3.5 13:1.0 14:3.5 24:1.5 25:5.0 26:1.5 33:1.5 34:0.5 35:1.0 36:4.0 37:0.5 38:4.5 48:1.0 49:2.0 60:2.0 62:2.0 72:0.5 73:2.5 74:1.0 81:0.5 83:0.5 84:2.5 86:2.5 97:2.0 98:1.0 108:2.0 110:2.0 121:2.0 134:1.0 144:1.0 145:2.0 146:1.0 155:1.0 156:3.0 157:1.0 158:3.0 
0.009167691877481805 0.0 0.14837638305122114 0.0 1:2.0 2:0.5 9:1.0 10:0.5 11:1.0 12:4.5 13:3.0 14:5.5 25:0.5 35:0.5 36:3.0 37:2.5 38:4.5 49:1.0 60:2.0 61:2.0 62:4.0 73:0.5 81:0.5 83:0.5 84:2.0 85:1.5 86:2.5 108:2.0 109:2.0 110:3.0 145:1.0 156:2.0 157:1.0 158:3.0 
1.0 0.0 0.0 1.0 1:4.5 6:3.5 8:1.5 12:4.0 14:2.0 25:5.5 30:4.5 32:2.5 49:3.0 54:2.0 56:1.0 73:4.0 78:3.0 80:1.5 97:3.0 102:2.0 104:1.0 121:2.0 126:1.0 128:1.0 145:4.0 150:3.0 152:2.0 
0.0 0.0 1.0 0.0 0:5.0 1:5.0 2:6.0 11:2.0 14:3.0 18:3.0 25:2.5 26:1.0 38:1.0 49:1.0 50:1.0 73:2.5 74:2.0 83:0.5 86:1.5 97:1.0 98:1.0 121:2.0 145:1.0 146:2.0 158:1.0 
0.0 0.0 0.0 1.0 1:6.5 12:1.0 14:2.0 25:5.0 36:1.5 38:2.0 49:3.0 62:1.0 73:2.5 86:0.5 97:3.0 121:1.0 145:5.0 158:1.0 
0.3327240866070313 0.0 1.0 0.0 0:1.5 1:3.0 9:3.5 10:1.0 11:2.0 12:3.5 13:2.0 14:4.0 15:0.5 24:1.5 25:3.0 33:3.5 34:0.5 35:2.0 36:3.0 37:0.5 38:2.0 48:1.0 49:2.0 57:3.0 59:1.0 60:2.0 62:1.0 72:1.0 73:1.5 81:1.5 83:1.0 84:2.0 85:0.5 86:1.5 96:1.0 97:2.0 105:2.0 107:1.0 108:2.0 110:2.0 145:1.0 153:2.0 155:1.0 156:2.0 157:1.0 158:2.0 
0.5223360021691489 0.0 1.0 0.0 1:0.5 2:3.0 14:4.5 17:0.5 18:7.0 19:4.0 20:0.5 25:0.5 26:1.5 38:2.5 41:0.5 42:1.5 43:0.5 44:1.0 50:1.0 62:1.0 66:1.0 86:0.5 90:1.0 92:0.5 114:1.0 146:1.0 158:1.0 162:1.0 
1.0 0.0 0.0 0.0 0:0.5 1:3.0 6:1.5 7:0.5 8:1.5 9:2.0 10:0.5 11:1.5 12:5.0 13:2.0 14:4.0 25:0.5 30:0.5 32:0.5 33:0.5 35:0.5 36:1.5 37:0.5 38:1.0 49:1.0 56:1.0 57:1.0 59:1.0 60:2.0 62:1.0 73:2.0 78:1.0 80:1.0 81:2.5 82:0.5 83:2.5 84:4.0 85:1.0 86:2.5 97:1.0 105:1.0 107:1.0 108:2.0 110:1.0 145:1.0 150:1.0 152:1.0 153:1.0 155:1.0 156:2.0 157:1.0 158:1.0 
0.0 0.0 0.4126744255569726 0.0 0:2.0 1:6.5 6:1.5 7:1.5 8:4.0 9:3.0 11:0.5 25:0.5 30:1.0 31:1.0 32:3.0 54:1.0 55:1.0 56:3.0 78:1.0 79:1.0 80:3.0 102:1.0 103:1.0 104:3.0 145:1.0 150:1.0 151:1.0 152:3.0 
0.0 0.0 0.0 0.7855914825376982 0:5.0 1:4.5 3:2.5 5:0.5 6:5.5 7:0.5 8:1.5 9:2.0 10:1.5 11:3.5 14:0.5 25:0.5 35:0.5 49:1.0 59:1.0 72:1.5 73:3.0 75:1.0 78:3.0 80:1.0 81:1.0 82:0.5 83:2.0 97:1.0 102:1.0 107:1.0 145:1.0 153:1.0 155:1.0 
0.0 0.0 1.0 0.0 2:5.5 8:3.5 9:1.5 10:5.0 11:4.0 26:2.5 32:1.5 33:1.0 34:3.5 35:4.0 50:1.0 56:1.0 58:2.0 59:1.0 74:0.5 80:0.5 81:0.5 82:2.5 83:2.0 98:1.0 104:1.0 106:2.0 107:2.0 131:1.0 146:1.0 152:1.0 153:1.0 154:3.0 155:2.0 
1.0 0.5110922860772402 1.0 1.0 0:1.5 1:4.5 2:4.0 5:0.5 8:0.5 9:1.0 11:1.0 12:2.5 13:0.5 14:2.5 17:0.5 18:1.0 20:2.5 24:1.5 25:4.5 26:2.5 33:0.5 35:0.5 36:1.0 38:1.5 42:1.5 44:2.0 49:2.0 50:1.0 62:1.0 68:1.0 72:0.5 73:3.0 74:1.0 77:0.5 81:0.5 83:0.5 84:0.5 86:0.5 90:0.5 92:1.0 96:1.0 97:3.0 98:1.0 108:1.0 110:1.0 116:1.0 121:1.0 144:1.0 145:2.0 146:1.0 153:1.0 156:1.0 158:1.0 164:1.0 
1.0 0.0 1.0 0.1035388530628769 2:0.5 6:0.5 9:6.0 10:5.0 11:5.5 12:2.0 13:2.0 14:1.5 33:1.5 34:1.0 35:1.0 57:1.0 58:1.0 59:1.0 81:2.0 82:1.5 83:2.5 105:2.0 106:1.0 107:2.0 153:1.0 154:1.0 155:1.0 
0.856640489153494 1.0 1.0 0.0 0:0.5 2:2.5 6:1.0 7:1.0 8:2.5 9:2.0 10:1.5 11:2.0 12:1.5 13:1.5 14:1.0 26:1.5 30:1.5 31:1.0 32:2.5 33:2.5 34:2.0 35:2.5 36:1.0 37:1.0 38:1.0 50:1.0 54:1.0 56:2.0 57:2.0 58:1.0 59:2.0 60:1.0 61:1.0 74:2.5 78:1.0 79:0.5 80:3.0 81:2.5 82:2.5 83:3.5 84:1.0 85:1.5 86:1.5 98:1.0 102:1.0 103:1.0 104:2.0 105:1.0 106:1.0 107:2.0 109:1.0 110:1.0 128:1.0 129:1.0 130:1.0 131:1.0 146:2.0 150:1.0 151:1.0 152:2.0 153:2.0 154:2.0 155:2.0 156:1.0 157:1.0 158:1.0 
1.0 0.4970981104969748 1.0 1.0 1:1.0 2:1.0 6:2.5 7:0.5 8:1.5 9:3.5 10:3.0 11:4.0 12:0.5 13:0.5 14:1.0 30:1.0 32:0.5 33:1.5 34:1.5 35:2.0 38:0.5 49:1.0 54:1.0 56:1.0 57:2.0 58:2.0 59:3.0 73:1.0 74:0.5 78:2.5 79:0.5 80:2.5 81:3.5 82:3.5 83:4.5 84:0.5 85:0.5 86:1.0 102:1.0 104:1.0 105:2.0 106:1.0 107:3.0 110:1.0 145:1.0 150:1.0 152:1.0 153:2.0 154:2.0 155:2.0 
0.33110011612169726 0.0 0.06815268082014622 0.0 0:2.0 1:5.5 6:0.5 9:0.5 11:0.5 12:3.5 13:2.0 14:4.0 18:2.0 24:0.5 25:3.0 30:0.5 33:0.5 36:3.5 37:2.0 38:4.0 49:2.0 60:2.0 61:1.0 62:3.0 73:1.0 81:0.5 84:1.5 85:0.5 86:1.5 97:2.0 108:2.0 109:1.0 110:3.0 145:1.0 156:2.0 157:1.0 158:2.0 
1.0 1.0 1.0 0.0 2:0.5 9:1.0 10:2.0 11:2.0 12:1.5 13:2.0 14:3.0 26:0.5 33:1.5 34:2.0 35:2.5 36:1.5 37:2.5 38:4.0 57:1.0 58:1.0 59:1.0 60:1.0 61:2.0 62:3.0 74:0.5 81:2.0 82:3.0 83:3.0 84:2.5 85:3.0 86:5.0 105:1.0 106:2.0 107:1.0 108:1.0 109:2.0 110:3.0 130:1.0 131:1.0 132:1.0 133:1.0 134:3.0 146:1.0 153:1.0 154:2.0 155:2.0 156:1.0 157:2.0 158:3.0 
1.0 0.0 1.0 1.0 1:1.0 2:5.0 6:2.0 7:4.0 8:4.0 9:0.5 10:2.0 11:2.5 14:1.0 25:0.5 26:1.0 30:0.5 31:0.5 32:2.0 35:0.5 49:1.0 50:2.0 55:1.0 56:2.0 73:1.0 74:3.5 78:1.0 79:3.0 80:3.5 81:0.5 82:1.0 83:1.5 98:2.0 103:1.0 104:2.0 145:1.0 146:2.0 150:1.0 151:1.0 152:2.0 155:1.0 
1.0 1.0 1.0 0.2323784013000648 2:2.0 9:0.5 10:1.5 11:3.0 12:0.5 13:1.0 14:4.5 25:1.0 26:1.0 34:1.0 35:2.5 38:4.5 50:1.0 58:1.0 59:2.0 62:3.0 74:2.5 81:0.5 82:1.0 83:4.0 84:0.5 85:0.5 86:5.5 98:1.0 106:1.0 107:3.0 110:4.0 131:1.0 134:1.0 146:2.0 153:1.0 154:1.0 155:3.0 156:1.0 157:1.0 158:4.0 
0.0 0.0993979747497021 0.0 0.0 0:0.5 1:1.0 2:3.0 8:1.0 9:0.5 11:1.5 12:2.5 13:2.0 14:4.5 25:0.5 26:1.0 32:0.5 35:2.0 36:3.0 37:2.0 38:5.0 50:1.0 60:2.0 61:1.0 62:3.0 73:0.5 83:0.5 84:2.5 85:1.0 86:3.5 107:1.0 108:2.0 109:1.0 110:4.0 134:1.0 155:1.0 156:2.0 157:1.0 158:4.0 
1.0 0.0 1.0 1.0 0:1.0 1:7.0 6:0.5 8:0.5 11:0.5 12:0.5 14:0.5 15:0.5 17:0.5 18:0.5 25:4.0 49:3.0 73:3.0 89:0.5 97:4.0 145:2.0 
0.0 0.0 1.0 0.0 0:0.5 2:3.0 9:1.5 10:4.0 11:3.0 12:0.5 13:2.5 14:5.0 34:2.0 35:1.5 37:0.5 38:1.5 58:2.0 59:2.0 61:1.0 62:2.0 72:0.5 74:1.0 81:2.5 82:4.0 83:4.0 84:1.0 85:2.5 86:3.5 105:1.0 106:2.0 107:1.0 109:1.0 110:1.0 130:1.0 131:1.0 146:1.0 153:1.0 154:2.0 155:2.0 157:1.0 158:2.0 
0.19866160841477562 0.0 0.0 0.0 1:2.5 2:3.5 8:0.5 11:1.0 12:2.0 13:2.0 14:5.5 25:1.5 26:2.0 30:1.0 31:1.0 32:1.5 33:1.0 34:1.0 35:2.0 36:2.0 37:1.5 38:4.0 49:1.0 50:1.0 60:1.0 61:1.0 62:3.0 73:1.0 74:1.5 83:0.5 84:1.0 85:0.5 86:3.5 97:1.0 98:1.0 108:1.0 110:3.0 145:1.0 146:1.0 152:1.0 155:1.0 156:1.0 157:1.0 158:3.0 
0.5235644449481671 0.0 0.0 0.5770243522199251 0:0.5 1:2.5 2:2.0 9:4.0 10:2.0 11:6.0 12:2.5 13:1.5 14:6.0 25:2.0 35:0.5 36:2.0 38:1.0 62:1.0 73:0.5 81:0.5 83:1.0 84:0.5 86:1.0 107:1.0 108:1.0 110:1.0 145:1.0 156:1.0 158:1.0 
1.0 1.0 1.0 1.0 0:1.0 1:5.0 3:1.0 6:1.5 7:0.5 8:1.0 9:0.5 11:0.5 12:0.5 14:1.5 15:1.0 17:1.0 18:2.0 20:0.5 24:1.5 25:6.0 27:1.0 30:1.5 32:1.0 33:1.0 35:1.0 36:0.5 38:0.5 39:0.5 41:0.5 42:0.5 44:0.5 49:4.0 54:1.0 56:1.0 72:0.5 73:4.5 78:1.5 80:0.5 81:0.5 83:0.5 84:0.5 86:1.0 87:0.5 89:0.5 90:0.5 97:4.0 102:1.0 121:3.0 144:1.0 145:4.0 150:1.0 152:1.0 153:1.0 155:1.0 158:1.0 
0.0 1.0 0.0 1.0 0:0.5 1:5.0 6:1.0 8:0.5 9:1.0 11:0.5 12:1.0 13:0.5 14:2.0 24:0.5 25:8.0 30:2.0 32:1.0 33:2.0 35:1.0 38:0.5 49:5.0 54:1.0 57:1.0 60:1.0 62:1.0 73:5.0 78:0.5 81:0.5 86:0.5 97:4.0 121:4.0 145:6.0 150:1.0 152:1.0 153:1.0 158:1.0 
1.0 0.0 0.07979709683313549 0.0 0:1.0 1:5.0 2:2.0 12:2.0 13:0.5 14:3.5 15:4.5 16:0.5 17:4.5 18:2.0 20:0.5 25:2.5 36:0.5 38:1.0 39:0.5 41:0.5 42:0.5 49:2.0 60:1.0 62:1.0 63:1.0 65:1.0 73:3.5 74:0.5 84:0.5 86:1.5 87:1.0 89:1.0 90:0.5 97:2.0 110:1.0 111:1.0 145:2.0 156:1.0 158:1.0 159:1.0 161:1.0 
0.0 0.0 0.0 1.0 1:5.0 6:1.0 8:0.5 12:2.0 13:1.5 14:1.5 25:7.0 30:1.0 49:5.0 54:1.0 73:6.5 78:1.5 80:0.5 81:0.5 84:1.5 85:1.0 86:1.0 97:5.0 102:1.0 121:4.0 145:6.0 150:1.0 
1.0 0.0 1.0 0.0 2:6.0 8:0.5 11:2.5 12:2.0 13:2.0 14:5.5 26:1.0 32:0.5 35:1.0 36:0.5 37:0.5 38:2.0 50:1.0 59:1.0 62:2.0 74:3.0 83:2.5 84:0.5 85:0.5 86:3.5 98:1.0 110:2.0 131:1.0 146:1.0 155:1.0 157:1.0 158:2.0 
1.0 1.0 1.0 0.0 0:1.0 1:1.0 2:2.0 8:1.5 9:1.5 10:1.0 11:2.5 12:1.0 13:2.0 14:3.0 15:1.0 18:1.0 19:0.5 20:0.5 24:0.5 25:2.0 26:0.5 32:1.0 33:1.5 34:1.5 35:3.0 36:1.0 37:1.5 38:2.5 39:1.0 42:1.5 43:0.5 49:1.0 57:1.0 58:1.0 59:2.0 61:1.0 62:1.0 66:1.0 72:0.5 73:1.0 74:1.0 80:1.0 81:1.0 82:0.5 83:2.5 84:0.5 85:1.5 86:2.0 87:0.5 90:0.5 92:0.5 97:1.0 104:1.0 105:1.0 106:1.0 107:2.0 108:1.0 109:1.0 110:2.0 114:1.0 131:1.0 145:1.0 146:1.0 152:1.0 153:1.0 154:1.0 155:2.0 156:1.0 157:1.0 158:2.0 162:1.0 
0.0 1.0 1.0 0.0 0:1.0 1:1.5 2:2.0 8:0.5 9:0.5 11:1.0 12:2.0 13:2.5 14:4.5 24:1.0 25:2.0 26:0.5 35:1.0 36:2.0 37:1.0 38:2.5 49:1.0 50:1.0 59:1.0 60:1.0 61:1.0 62:2.0 72:1.5 73:2.5 74:1.0 81:0.5 83:1.5 84:3.5 85:2.5 86:4.5 97:1.0 108:1.0 109:1.0 110:3.0 121:1.0 132:1.0 134:1.0 144:1.0 145:2.0 146:1.0 155:1.0 156:2.0 157:1.0 158:3.0 
1.0 1.0 1.0 0.0 0:0.5 9:1.5 10:1.0 11:1.5 12:2.5 13:2.0 14:3.0 33:1.0 34:1.0 35:1.5 36:2.5 37:2.0 38:3.0 57:1.0 59:1.0 60:2.0 61:2.0 62:3.0 72:0.5 81:2.0 82:1.5 83:2.0 84:5.0 85:4.0 86:5.0 105:1.0 106:1.0 107:1.0 108:2.0 109:2.0 110:3.0 129:1.0 131:1.0 132:1.0 133:1.0 134:2.0 153:1.0 154:1.0 155:1.0 156:2.0 157:2.0 158:3.0 
0.0 0.0 0.0 1.0 1:7.0 2:1.5 9:0.5 10:0.5 11:4.5 25:3.5 32:0.5 33:1.0 35:3.0 59:1.0 73:1.5 83:1.0 107:1.0 145:1.0 155:2.0 
0.0 0.0 0.953360225310626 0.0 0:6.0 1:5.5 9:1.0 11:0.5 12:2.0 13:2.0 14:4.5 24:0.5 25:1.0 33:1.0 36:0.5 38:1.0 49:1.0 62:1.0 72:1.0 73:2.5 81:1.0 83:0.5 84:3.0 85:1.0 86:4.0 96:1.0 97:2.0 105:1.0 108:1.0 109:1.0 110:3.0 144:1.0 145:1.0 153:1.0 156:1.0 158:2.0 
1.0 0.0 1.0 0.0 0:1.0 1:4.0 6:1.5 7:1.0 8:1.5 9:3.5 10:5.0 11:5.0 12:0.5 13:0.5 14:0.5 30:0.5 32:0.5 33:0.5 34:1.0 35:1.5 49:1.0 54:1.0 56:1.0 57:1.0 58:1.0 59:2.0 72:1.0 73:3.0 78:1.5 79:0.5 80:1.5 81:2.0 82:2.5 83:3.5 84:0.5 86:0.5 97:1.0 102:1.0 104:1.0 105:1.0 106:1.0 107:2.0 145:1.0 150:1.0 152:1.0 153:1.0 154:1.0 155:2.0 
0.0 1.0 1.0 0.0 0:1.0 1:2.0 2:0.5 6:1.0 8:1.0 9:2.0 10:3.0 11:4.5 12:1.0 13:1.0 14:1.0 15:0.5 18:0.5 24:0.5 25:1.5 33:1.5 34:1.5 35:2.5 36:0.5 38:0.5 49:2.0 57:1.0 58:1.0 59:3.0 72:1.0 73:3.0 74:0.5 78:1.0 80:1.0 81:3.5 82:4.0 83:4.5 84:2.0 85:1.0 86:1.0 87:0.5 90:0.5 97:2.0 105:1.0 106:2.0 107:3.0 121:1.0 131:1.0 144:1.0 145:1.0 153:2.0 154:2.0 155:3.0 156:1.0 158:1.0 
1.0 0.0 1.0 0.0 1:4.0 2:4.0 5:0.5 8:1.5 9:1.0 10:1.0 11:3.0 12:1.5 13:1.0 14:4.0 15:1.0 17:1.0 25:2.0 26:1.0 32:0.5 33:0.5 34:0.5 35:2.0 36:0.5 37:0.5 38:2.0 41:0.5 49:2.0 50:1.0 57:1.0 59:2.0 60:1.0 62:2.0 73:3.0 74:2.0 80:0.5 81:0.5 83:2.0 84:0.5 86:1.5 87:0.5 89:0.5 97:2.0 98:1.0 107:1.0 110:2.0 145:2.0 146:1.0 152:1.0 153:1.0 155:1.0 156:1.0 158:2.0 
0.0 0.0 0.0 1.0 1:5.0 2:1.0 11:1.0 12:2.5 13:2.0 14:4.5 17:1.0 20:0.5 25:3.5 36:0.5 37:0.5 38:2.5 41:0.5 49:3.0 60:1.0 62:2.0 73:3.5 74:0.5 83:0.5 84:1.0 85:0.5 86:2.0 89:0.5 97:3.0 110:1.0 145:4.0 156:1.0 157:1.0 158:3.0 
1.0 1.0 1.0 1.0 0:0.5 1:3.0 2:1.5 3:0.5 5:1.0 6:2.0 7:0.5 8:2.0 11:0.5 14:1.5 24:0.5 25:4.5 26:1.5 29:0.5 30:2.5 31:0.5 32:3.0 35:1.0 38:1.5 49:3.0 50:1.0 54:2.0 56:2.0 59:1.0 62:1.0 72:0.5 73:4.0 74:2.0 77:0.5 78:2.5 79:0.5 80:2.5 83:1.0 86:2.0 97:3.0 98:1.0 102:2.0 104:2.0 110:1.0 121:2.0 126:1.0 128:1.0 134:1.0 144:1.0 145:3.0 146:2.0 149:1.0 150:2.0 152:2.0 155:1.0 158:2.0 
1.0 0.0 1.0 0.0 2:2.0 6:0.5 7:0.5 8:1.5 9:0.5 10:0.5 11:2.5 12:3.5 13:3.0 14:5.0 26:0.5 32:0.5 35:0.5 36:2.0 37:1.5 38:3.0 50:1.0 59:1.0 60:2.0 61:1.0 62:3.0 74:1.0 80:0.5 81:0.5 83:1.5 84:3.5 85:3.0 86:4.5 98:1.0 104:1.0 107:1.0 108:2.0 109:2.0 110:3.0 134:1.0 155:1.0 156:2.0 157:1.0 158:2.0 
0.0 1.0 0.0 0.005551427738545625 0:4.5 1:7.0 2:1.0 9:2.5 14:1.5 25:4.5 26:1.0 36:0.5 38:3.5 49:2.0 62:1.0 73:4.0 74:0.5 84:0.5 86:2.0 97:2.0 110:1.0 121:3.0 134:1.0 144:1.0 145:2.0 146:1.0 158:2.0 
0.9257649864791886 0.0 1.0 0.0 0:5.0 1:2.0 2:5.0 11:6.0 14:1.5 25:2.5 26:2.0 35:3.5 38:0.5 49:2.0 50:1.0 59:2.0 72:0.5 73:2.0 74:0.5 83:1.0 97:1.0 98:1.0 107:2.0 121:1.0 145:1.0 146:1.0 155:2.0 
1.0 0.0 1.0 0.0 0:3.0 1:4.0 2:1.5 9:0.5 10:0.5 11:2.0 12:3.0 13:2.0 14:6.5 15:0.5 17:0.5 18:1.5 24:0.5 25:0.5 38:0.5 42:0.5 49:2.0 60:1.0 62:2.0 66:1.0 72:0.5 73:2.0 82:0.5 83:1.0 84:1.0 85:1.0 86:3.0 90:1.0 97:1.0 110:1.0 158:1.0 
0.0 1.0 0.0 0.0 0:0.5 1:1.0 2:3.0 8:1.0 9:0.5 11:1.5 12:2.5 13:2.0 14:4.5 25:0.5 26:1.0 32:0.5 35:2.0 36:3.0 37:2.0 38:5.0 50:1.0 60:2.0 61:1.0 62:3.0 73:0.5 83:0.5 84:2.5 85:1.0 86:3.5 107:1.0 108:2.0 109:1.0 110:4.0 134:1.0 155:1.0 156:2.0 157:1.0 158:4.0 
1.0 0.20388399933026613 1.0 0.5878074484886732 8:0.5 9:2.5 10:2.5 11:3.0 12:1.0 13:4.5 14:3.5 33:2.5 34:2.5 35:4.0 36:0.5 37:0.5 38:0.5 57:2.0 58:2.0 59:3.0 61:1.0 62:1.0 81:2.5 82:2.5 83:4.5 84:0.5 85:2.0 86:1.5 105:2.0 106:2.0 107:3.0 109:1.0 110:1.0 129:1.0 130:1.0 131:1.0 153:2.0 154:2.0 155:3.0 156:1.0 157:1.0 158:1.0 
1.0 1.0 1.0 1.0 2:1.5 7:0.5 8:0.5 9:1.5 10:2.5 11:4.0 12:1.0 13:1.5 14:3.0 26:1.5 32:0.5 33:2.0 34:3.5 35:5.5 36:0.5 37:1.5 38:2.5 57:1.0 58:2.0 59:4.0 61:1.0 62:1.0 74:0.5 81:0.5 82:1.5 83:3.5 85:0.5 86:1.0 98:1.0 105:1.0 106:2.0 107:4.0 110:1.0 131:1.0 146:1.0 153:1.0 154:2.0 155:4.0 157:1.0 158:2.0 
1.0 1.0 1.0 0.0 0:1.0 1:1.5 2:1.0 6:1.0 8:1.0 9:2.0 10:3.0 11:3.5 12:1.0 13:1.5 14:1.5 15:0.5 18:1.0 25:2.0 26:0.5 30:0.5 32:0.5 33:2.0 34:2.0 35:3.0 36:1.0 37:0.5 38:1.0 42:0.5 48:1.0 49:1.0 54:1.0 57:2.0 58:2.0 59:2.0 60:1.0 61:1.0 62:1.0 72:1.5 73:2.0 74:0.5 78:1.0 80:1.0 81:3.5 82:3.0 83:4.0 84:1.5 85:1.0 86:2.0 87:0.5 90:0.5 97:1.0 105:2.0 106:2.0 107:3.0 108:1.0 109:1.0 110:1.0 129:1.0 131:1.0 144:1.0 145:1.0 150:1.0 153:1.0 154:2.0 155:2.0 156:1.0 157:1.0 158:1.0 
0.0 0.0 0.0 0.08558433210016411 0:1.0 1:5.0 2:2.0 3:0.5 6:0.5 8:1.0 9:1.0 10:0.5 11:1.5 12:3.0 13:1.0 14:4.5 25:4.5 26:0.5 32:0.5 33:1.0 35:1.5 36:2.5 37:0.5 38:3.0 49:3.0 59:1.0 60:1.0 62:2.0 73:2.5 80:0.5 81:0.5 82:0.5 83:1.0 84:1.5 85:0.5 86:2.0 97:3.0 108:2.0 109:1.0 110:2.0 145:2.0 155:1.0 156:2.0 157:1.0 158:2.0 
0.0 0.0 1.0 0.0 0:3.0 1:1.0 6:1.0 8:0.5 9:3.0 10:3.5 11:3.5 12:1.0 13:2.5 14:1.0 15:1.5 18:4.0 19:1.5 24:0.5 33:1.0 34:1.5 35:1.5 36:0.5 37:1.0 49:1.0 57:1.0 58:1.0 59:2.0 61:1.0 72:1.0 73:1.0 78:0.5 81:2.5 82:2.5 83:3.5 84:0.5 85:1.5 86:1.0 90:1.0 105:2.0 106:2.0 107:3.0 109:1.0 153:1.0 154:1.0 155:2.0 157:1.0 
1.0 0.03182322885144798 1.0 0.0 1:2.0 3:0.5 5:1.0 6:3.0 7:4.0 8:3.0 9:1.0 10:2.0 11:1.0 14:0.5 15:0.5 17:1.0 25:1.0 29:0.5 30:2.5 31:1.5 32:3.0 34:0.5 49:1.0 54:2.0 55:2.0 56:2.0 58:1.0 73:2.0 75:0.5 77:0.5 78:3.5 79:3.0 80:3.5 81:0.5 82:1.0 83:0.5 86:0.5 87:0.5 89:0.5 97:1.0 102:2.0 103:2.0 104:2.0 126:1.0 128:1.0 145:1.0 149:1.0 150:2.0 151:2.0 152:3.0 154:1.0 
0.0 0.0 1.0 0.0 2:5.5 8:0.5 9:1.0 10:0.5 11:2.5 12:0.5 13:0.5 14:5.0 26:4.0 33:0.5 35:2.0 36:0.5 37:0.5 38:4.0 50:2.0 59:1.0 62:3.0 74:1.5 83:1.0 86:2.5 98:3.0 107:1.0 110:3.0 146:3.0 155:1.0 158:3.0 
1.0 0.42134288666152003 1.0 1.0 1:0.5 2:1.5 6:0.5 7:0.5 8:1.0 9:2.0 10:2.5 11:5.0 12:0.5 13:0.5 14:3.5 30:1.0 31:1.0 32:1.5 33:3.0 34:3.0 35:5.0 38:1.0 56:1.0 57:2.0 58:1.0 59:3.0 62:1.0 78:0.5 79:0.5 80:0.5 81:2.0 82:2.0 83:3.5 86:0.5 104:1.0 105:2.0 106:2.0 107:3.0 110:1.0 129:1.0 130:1.0 131:1.0 150:1.0 151:1.0 152:1.0 153:2.0 154:2.0 155:3.0 
0.807006225014109 0.0 1.0 0.0 0:5.5 1:3.0 2:3.0 6:0.5 7:0.5 8:2.5 9:2.0 10:2.0 11:4.5 12:1.5 13:0.5 14:3.5 18:1.5 24:0.5 25:1.5 32:0.5 33:1.0 34:0.5 35:2.0 38:0.5 48:1.0 49:2.0 50:1.0 56:1.0 57:1.0 59:1.0 72:1.0 73:3.0 74:1.0 78:0.5 80:1.0 81:1.5 82:0.5 83:2.5 86:0.5 97:1.0 107:1.0 145:1.0 146:1.0 152:1.0 153:1.0 155:1.0 
0.03069916788916571 0.0 0.0 0.0 0:7.0 1:0.5 6:1.5 7:3.0 8:1.0 9:0.5 10:0.5 18:1.0 24:2.5 25:1.5 30:3.0 31:2.5 32:0.5 33:1.0 34:0.5 48:1.0 54:1.0 55:1.0 72:2.0 75:0.5 78:0.5 79:0.5 80:0.5 96:1.0 102:1.0 103:1.0 104:1.0 144:1.0 150:1.0 151:2.0 
1.0 0.0 0.0 0.0 0:6.0 1:7.0 6:1.5 7:1.0 8:3.0 25:1.0 30:0.5 32:0.5 49:1.0 54:1.0 56:1.0 73:2.5 78:1.5 79:1.0 80:3.0 102:1.0 104:1.0 145:1.0 150:1.0 152:2.0 
0.0 1.0 0.0 0.0 0:3.5 1:3.0 2:1.0 8:0.5 9:1.0 10:0.5 11:1.5 12:3.0 13:1.0 14:3.0 24:1.0 25:3.5 26:1.5 32:1.5 33:2.5 34:1.0 35:4.0 36:4.0 37:1.5 38:4.5 48:1.0 49:1.0 59:1.0 60:2.0 62:2.0 72:0.5 73:1.0 74:0.5 80:0.5 81:0.5 83:1.5 84:2.0 85:0.5 86:2.0 97:1.0 105:1.0 107:1.0 108:2.0 110:2.0 131:1.0 134:1.0 144:1.0 145:1.0 146:1.0 152:1.0 153:1.0 155:2.0 156:2.0 157:1.0 158:2.0 
1.0 1.0 1.0 1.0 0:2.0 1:3.5 2:1.5 3:1.5 5:1.0 6:0.5 8:0.5 11:0.5 12:1.5 14:3.0 15:1.0 18:0.5 24:0.5 25:4.0 26:0.5 27:1.5 29:0.5 30:1.0 32:1.0 36:1.0 38:1.5 48:1.0 49:3.0 51:1.0 60:1.0 62:1.0 72:1.0 73:6.0 74:1.5 75:1.5 77:1.0 78:0.5 80:0.5 83:0.5 84:2.5 86:3.5 87:0.5 97:3.0 99:1.0 108:1.0 110:2.0 121:2.0 134:1.0 144:1.0 145:3.0 146:1.0 147:1.0 149:1.0 155:1.0 156:1.0 158:2.0 
1.0 0.0 1.0 1.0 0:1.0 1:3.0 6:4.5 7:1.0 8:1.5 9:3.0 10:1.0 11:2.0 12:0.5 13:0.5 14:2.0 25:1.0 30:2.0 32:0.5 33:1.5 35:1.5 38:0.5 49:1.0 54:3.0 56:1.0 57:1.0 59:1.0 72:0.5 73:2.5 78:4.0 79:0.5 80:1.0 81:2.5 82:0.5 83:2.5 86:0.5 96:1.0 97:2.0 102:4.0 104:1.0 105:1.0 107:1.0 144:1.0 145:2.0 150:3.0 152:1.0 153:1.0 155:1.0 158:1.0 
1.0 1.0 1.0 0.0 2:2.5 6:1.0 7:1.5 8:3.5 9:1.5 10:3.0 11:4.5 14:0.5 26:1.5 30:1.5 31:1.5 32:4.0 33:1.0 34:2.0 35:4.0 50:1.0 55:1.0 56:3.0 57:1.0 58:2.0 59:3.0 74:0.5 78:0.5 79:0.5 80:1.5 81:0.5 82:1.5 83:3.0 98:1.0 103:1.0 104:2.0 106:1.0 107:3.0 146:1.0 151:1.0 152:2.0 153:1.0 154:2.0 155:3.0 
1.0 0.0 1.0 0.0 1:2.0 2:3.5 8:0.5 9:2.5 10:3.0 11:5.0 12:0.5 13:0.5 14:3.5 15:0.5 18:0.5 25:0.5 33:1.5 34:3.0 35:2.5 37:0.5 38:0.5 49:1.0 50:1.0 57:1.0 58:2.0 59:4.0 62:1.0 73:1.5 74:1.5 81:2.5 82:2.5 83:4.0 86:1.5 97:1.0 105:1.0 106:2.0 107:2.0 153:1.0 154:2.0 155:2.0 
0.0 1.0 1.0 1.0 1:2.5 2:0.5 3:0.5 5:0.5 6:1.0 8:0.5 9:3.0 10:2.5 11:4.5 25:4.5 27:0.5 29:0.5 30:1.5 32:1.5 33:5.0 34:3.5 35:5.0 49:1.0 57:2.0 58:1.0 59:2.0 73:1.5 78:0.5 81:2.0 82:0.5 83:2.0 97:2.0 105:2.0 106:1.0 107:3.0 121:1.0 145:2.0 150:1.0 153:2.0 154:1.0 155:3.0 
1.0 1.0 1.0 1.0 0:1.0 1:1.5 2:1.0 6:1.0 8:1.0 9:1.5 10:0.5 11:1.5 12:1.0 13:2.0 14:3.0 24:2.0 25:4.5 26:0.5 30:2.5 32:1.5 33:3.0 35:2.5 36:1.5 37:1.5 38:2.5 48:1.0 49:2.0 54:1.0 56:1.0 57:2.0 59:1.0 60:1.0 61:1.0 62:2.0 72:0.5 73:3.0 74:0.5 78:1.0 80:0.5 81:2.0 82:0.5 83:2.0 84:1.5 85:1.0 86:2.5 97:2.0 102:1.0 105:1.0 107:1.0 108:1.0 110:1.0 121:2.0 126:1.0 129:1.0 131:1.0 132:1.0 134:1.0 144:1.0 145:2.0 146:1.0 150:1.0 152:1.0 153:2.0 155:2.0 156:1.0 157:1.0 158:2.0 
0.0 1.0 0.0 0.0 1:1.5 2:4.0 8:2.0 9:0.5 10:1.0 11:2.0 12:1.5 13:1.5 14:3.0 25:2.5 26:4.0 32:2.0 33:1.0 34:1.5 35:4.5 36:2.0 37:2.0 38:4.5 49:1.0 50:2.0 56:1.0 59:2.0 60:1.0 61:1.0 62:2.0 73:1.0 74:2.5 80:1.5 83:1.5 84:0.5 85:0.5 86:2.0 97:1.0 98:2.0 104:1.0 107:2.0 108:1.0 109:1.0 110:2.0 131:1.0 134:1.0 145:1.0 146:2.0 152:2.0 154:1.0 155:2.0 156:1.0 157:1.0 158:2.0 
1.0 0.0 1.0 0.0 1:1.0 2:4.5 5:1.0 6:0.5 7:1.0 8:3.0 9:1.5 10:2.5 11:4.5 13:0.5 14:4.5 25:0.5 26:0.5 32:0.5 33:0.5 34:0.5 35:2.0 38:0.5 49:1.0 50:1.0 56:1.0 57:1.0 58:1.0 59:2.0 62:1.0 73:2.0 74:1.5 77:0.5 79:0.5 80:2.5 81:1.0 82:1.5 83:3.5 85:0.5 86:1.5 104:1.0 106:1.0 107:1.0 145:1.0 146:1.0 152:1.0 153:1.0 154:1.0 155:2.0 158:1.0 
0.0 0.0 1.0 0.0 1:0.5 2:3.0 8:0.5 9:1.0 10:1.0 11:2.0 12:3.0 13:3.0 14:4.5 26:1.5 33:1.0 34:0.5 35:2.0 36:1.5 37:1.0 38:3.0 50:2.0 59:2.0 60:1.0 61:1.0 62:3.0 73:0.5 74:2.5 81:0.5 82:0.5 83:2.5 84:2.5 85:2.5 86:4.5 98:1.0 107:1.0 108:1.0 109:1.0 110:3.0 134:1.0 146:1.0 155:2.0 156:1.0 157:1.0 158:3.0 
1.0 0.0 1.0 1.0 0:1.0 1:5.0 2:2.0 6:0.5 8:0.5 9:0.5 11:1.0 12:1.5 14:3.0 25:4.0 26:0.5 30:0.5 32:0.5 33:0.5 35:0.5 36:0.5 38:1.0 49:4.0 62:1.0 72:0.5 73:4.5 74:0.5 78:0.5 81:0.5 83:0.5 84:0.5 86:1.0 97:5.0 108:1.0 110:1.0 145:4.0 156:1.0 158:1.0 
0.8210289461956268 0.0 0.0 0.0 1:6.5 2:0.5 6:1.5 7:2.5 8:5.0 9:2.5 11:1.5 12:0.5 25:1.0 30:0.5 31:1.0 32:3.0 55:1.0 56:2.0 73:0.5 78:0.5 79:0.5 80:1.5 103:1.0 104:2.0 145:1.0 150:1.0 151:1.0 152:2.0 
0.0 0.0 0.0 0.3292048153849316 0:7.0 1:0.5 6:3.5 7:2.0 8:3.5 18:0.5 24:1.5 25:1.5 30:2.5 31:1.0 32:2.5 54:2.0 55:1.0 56:2.0 72:0.5 73:0.5 78:2.5 79:1.0 80:2.5 96:1.0 102:2.0 103:1.0 104:2.0 144:1.0 150:2.0 151:1.0 152:2.0 
0.0 0.0 1.0 1.0 0:1.5 1:3.5 2:4.5 8:0.5 9:2.5 11:2.5 12:2.5 14:3.5 24:2.0 25:4.5 26:2.0 33:2.5 35:2.5 36:3.0 38:3.0 49:2.0 50:1.0 57:1.0 59:1.0 60:1.0 62:1.0 72:0.5 73:2.0 74:1.0 81:0.5 83:1.5 84:1.0 86:1.0 96:1.0 97:2.0 98:1.0 105:1.0 107:1.0 108:1.0 110:2.0 121:1.0 144:1.0 145:2.0 146:1.0 153:1.0 155:1.0 156:1.0 158:1.0 
0.0 0.0 1.0 0.0 0:0.5 1:3.5 2:5.0 8:4.0 9:1.0 10:0.5 11:4.5 12:1.5 13:0.5 14:5.0 25:3.5 26:0.5 32:0.5 33:1.0 34:0.5 35:2.5 36:0.5 38:2.5 49:2.0 59:1.0 62:2.0 73:1.0 81:0.5 83:0.5 84:0.5 85:0.5 86:1.5 97:1.0 110:1.0 145:1.0 155:1.0 156:1.0 158:2.0 
1.0 1.0 1.0 0.0 1:0.5 2:1.0 6:1.0 7:0.5 8:1.0 9:1.5 10:3.5 11:3.0 14:0.5 25:0.5 26:0.5 30:1.5 31:1.0 32:1.5 33:2.5 34:4.5 35:5.5 54:1.0 56:1.0 57:1.0 58:3.0 59:3.0 74:0.5 78:1.0 79:0.5 80:1.0 81:2.0 82:4.0 83:4.0 102:1.0 105:1.0 106:3.0 107:3.0 129:1.0 130:3.0 131:3.0 146:1.0 150:1.0 151:1.0 152:1.0 153:2.0 154:3.0 155:3.0 
1.0 0.0 1.0 0.0 0:1.0 1:6.0 2:3.0 8:0.5 9:2.0 10:0.5 11:4.0 12:2.5 13:0.5 14:4.5 17:1.0 18:0.5 20:0.5 25:1.0 33:0.5 35:0.5 36:0.5 38:0.5 49:1.0 60:1.0 62:1.0 72:0.5 73:2.5 81:1.0 83:1.5 84:2.0 85:0.5 86:2.0 97:1.0 108:1.0 110:1.0 145:1.0 153:1.0 156:1.0 158:1.0 
0.0 0.0 1.0 0.0 0:0.5 1:0.5 6:2.0 7:1.5 8:1.5 9:5.0 10:5.5 11:5.5 13:1.0 14:1.0 30:0.5 31:0.5 32:0.5 33:1.0 34:1.5 35:1.5 38:0.5 54:1.0 57:1.0 58:1.0 59:1.0 78:0.5 81:1.5 82:3.0 83:2.5 85:1.0 86:1.0 105:1.0 106:1.0 107:1.0 110:1.0 153:1.0 154:2.0 155:1.0 157:1.0 158:1.0 
1.0 1.0 1.0 0.0 0:0.5 1:1.0 2:1.0 6:1.5 7:1.5 8:2.0 9:2.0 10:3.5 11:3.5 12:0.5 14:1.0 18:0.5 19:0.5 25:0.5 30:1.5 31:1.0 32:2.0 33:1.5 34:2.0 35:2.5 54:1.0 55:1.0 56:2.0 57:1.0 58:2.0 59:2.0 73:1.0 74:0.5 78:2.0 79:1.5 80:2.0 81:2.5 82:3.0 83:3.0 86:0.5 97:1.0 102:1.0 103:1.0 104:2.0 105:1.0 106:2.0 107:2.0 126:1.0 128:1.0 131:1.0 145:1.0 150:1.0 151:1.0 152:2.0 153:2.0 154:2.0 155:3.0 
1.0 1.0 1.0 1.0 6:3.5 7:1.0 8:3.0 9:1.0 10:0.5 11:1.5 12:0.5 13:2.0 14:3.0 30:4.0 31:1.0 32:2.5 33:1.0 34:0.5 35:1.5 36:0.5 37:0.5 38:2.0 54:3.0 55:1.0 56:2.0 57:1.0 59:1.0 61:1.0 62:2.0 78:4.0 79:1.0 80:3.0 81:1.5 82:0.5 83:1.5 84:0.5 85:1.0 86:2.0 102:2.0 103:1.0 104:2.0 105:1.0 107:1.0 110:1.0 126:1.0 128:1.0 150:3.0 151:1.0 152:3.0 153:1.0 155:2.0 157:1.0 158:2.0 
0.0 0.0 1.0 0.0 2:2.0 9:3.5 10:4.5 11:4.0 12:3.0 13:3.5 14:3.5 33:2.0 34:4.5 35:3.5 36:0.5 37:2.0 38:2.0 57:1.0 58:2.0 59:1.0 61:1.0 62:1.0 81:0.5 82:2.0 83:1.0 85:0.5 86:0.5 105:1.0 106:2.0 107:2.0 109:1.0 110:1.0 130:1.0 153:1.0 154:2.0 155:1.0 157:1.0 158:1.0 
0.26355871917137114 0.0 1.0 0.0 0:1.0 1:1.5 3:5.5 4:4.0 5:2.5 6:3.5 7:1.5 8:1.0 18:0.5 21:1.0 23:0.5 25:0.5 27:2.5 28:1.0 29:0.5 30:0.5 45:0.5 49:1.0 51:2.0 52:1.0 53:1.0 54:1.0 72:0.5 73:1.0 75:4.0 76:2.0 77:1.0 78:1.0 79:0.5 93:0.5 99:2.0 100:1.0 101:1.0 145:1.0 147:3.0 148:2.0 149:1.0 150:1.0 
1.0 1.0 1.0 1.0 0:1.0 1:3.0 2:4.0 8:1.0 9:1.5 10:0.5 11:3.5 12:1.5 13:0.5 14:2.5 24:0.5 25:3.0 26:1.5 32:0.5 33:1.0 35:2.5 36:1.0 38:1.5 49:2.0 50:2.0 57:1.0 59:2.0 62:1.0 72:1.0 73:3.0 74:2.5 80:0.5 81:2.5 82:0.5 83:4.0 84:2.0 86:2.5 96:1.0 97:3.0 98:2.0 104:1.0 105:1.0 107:3.0 108:1.0 110:1.0 121:1.0 129:1.0 131:1.0 144:1.0 145:2.0 146:1.0 153:1.0 155:2.0 156:1.0 158:1.0 
1.0 1.0 1.0 0.0 0:0.5 1:1.5 6:2.5 7:2.0 8:2.5 9:3.0 10:1.5 11:1.5 12:3.5 13:1.5 24:0.5 25:1.5 30:4.5 31:4.0 32:4.5 33:3.0 34:2.0 35:2.5 36:0.5 54:2.0 55:2.0 56:2.0 57:1.0 58:1.0 59:1.0 73:0.5 78:2.0 79:1.0 80:1.0 81:1.5 82:0.5 83:0.5 84:0.5 97:1.0 102:2.0 103:2.0 104:2.0 105:1.0 106:1.0 107:1.0 108:1.0 126:1.0 145:1.0 150:2.0 151:2.0 152:2.0 153:2.0 154:1.0 155:1.0 156:1.0 
1.0 0.0 1.0 0.0 0:0.5 1:1.0 2:1.5 6:1.0 8:0.5 9:4.5 10:4.0 11:4.0 12:1.0 13:1.5 14:1.5 30:0.5 33:3.0 34:2.0 35:1.5 36:0.5 37:0.5 57:3.0 58:2.0 59:3.0 62:1.0 72:0.5 73:1.0 74:0.5 78:0.5 80:0.5 81:3.5 82:3.5 83:4.0 84:0.5 85:0.5 86:0.5 105:3.0 106:2.0 107:2.0 153:2.0 154:2.0 155:2.0 157:1.0 
0.022480694245603186 1.0 1.0 1.0 0:1.5 1:3.5 2:2.0 6:0.5 8:1.0 9:2.0 10:0.5 11:1.5 12:2.0 13:0.5 14:2.5 24:1.0 25:4.5 26:1.0 30:1.0 32:1.0 33:3.0 34:0.5 35:3.0 36:2.5 38:2.5 48:1.0 49:3.0 50:1.0 57:1.0 59:1.0 60:2.0 62:2.0 72:1.0 73:2.5 74:0.5 78:0.5 80:0.5 81:1.5 83:1.0 84:1.5 86:1.0 96:1.0 97:2.0 105:1.0 107:1.0 108:1.0 110:1.0 121:1.0 144:1.0 145:3.0 146:1.0 153:2.0 155:1.0 156:2.0 158:2.0 
1.0 0.7732644911411379 1.0 0.0 2:4.5 9:1.0 10:2.0 11:2.5 12:0.5 13:1.0 14:5.0 26:1.0 33:0.5 34:1.5 35:2.5 37:0.5 38:4.0 50:1.0 58:1.0 59:2.0 62:4.0 74:1.0 81:0.5 82:1.5 83:2.5 85:0.5 86:3.0 98:1.0 106:1.0 107:2.0 110:2.0 131:1.0 146:2.0 153:1.0 154:2.0 155:2.0 157:1.0 158:4.0 
1.0 0.0 1.0 0.0 2:1.0 6:1.0 7:1.0 8:2.5 9:2.0 10:3.0 11:3.0 12:2.5 13:2.0 14:1.0 30:1.0 31:1.0 32:1.5 33:1.5 34:2.5 35:2.5 36:1.0 37:0.5 38:0.5 56:1.0 57:1.0 58:2.0 59:2.0 60:1.0 61:1.0 62:1.0 74:1.0 78:1.5 79:1.5 80:2.5 81:2.5 82:3.5 83:3.5 84:0.5 85:0.5 86:0.5 102:1.0 103:1.0 104:2.0 105:1.0 106:2.0 107:2.0 108:1.0 129:1.0 130:1.0 131:1.0 146:1.0 150:1.0 151:1.0 152:1.0 153:1.0 154:2.0 155:2.0 156:1.0 157:1.0 158:1.0 
1.0 0.03694204541647682 1.0 0.0 0:4.5 1:2.0 2:2.0 5:0.5 6:1.0 7:1.0 8:2.5 9:0.5 10:2.0 11:4.0 18:3.5 19:1.5 20:0.5 25:1.0 31:0.5 32:1.0 35:1.0 42:0.5 48:1.0 49:2.0 56:1.0 59:1.0 66:1.0 72:1.0 73:4.0 74:0.5 78:1.0 79:0.5 80:2.0 81:1.0 82:1.0 83:3.0 90:2.0 92:0.5 97:1.0 104:1.0 107:2.0 114:1.0 121:1.0 145:1.0 146:1.0 150:1.0 151:1.0 152:1.0 154:1.0 155:2.0 162:1.0 
1.0 0.0 1.0 0.0 0:1.0 1:1.5 2:0.5 9:2.0 10:1.0 11:3.0 12:2.0 13:0.5 14:4.0 15:0.5 16:0.5 18:3.0 19:3.5 20:1.0 24:0.5 25:1.5 33:0.5 35:0.5 42:2.5 43:1.5 44:1.0 49:1.0 57:1.0 59:1.0 66:2.0 67:1.0 68:1.0 72:0.5 73:2.0 81:1.0 82:0.5 83:1.5 84:0.5 86:1.0 90:3.5 91:2.0 92:1.5 97:1.0 105:1.0 107:1.0 108:1.0 114:2.0 115:1.0 116:1.0 121:1.0 138:1.0 140:1.0 144:1.0 145:1.0 153:1.0 155:1.0 158:1.0 162:2.0 163:2.0 164:1.0 
0.0 0.0 1.0 0.0 2:0.5 6:0.5 8:0.5 9:2.0 10:4.5 11:3.5 12:0.5 13:3.0 14:1.5 33:1.0 34:4.0 35:2.0 37:1.0 38:0.5 57:1.0 58:4.0 59:2.0 61:1.0 62:1.0 81:2.0 82:4.5 83:3.0 84:0.5 85:1.5 86:1.0 105:1.0 106:4.0 107:3.0 109:1.0 153:1.0 154:4.0 155:2.0 157:2.0 158:1.0 
1.0 1.0 1.0 1.0 0:1.0 1:1.0 6:1.5 8:0.5 9:3.0 10:2.5 11:4.0 12:0.5 13:2.0 14:3.0 30:1.0 33:3.0 34:1.0 35:2.5 38:0.5 54:1.0 57:2.0 58:1.0 59:2.0 72:0.5 73:0.5 78:2.0 80:0.5 81:4.5 82:2.0 83:4.0 85:0.5 86:1.5 102:1.0 105:3.0 106:1.0 107:3.0 110:1.0 129:1.0 131:1.0 144:1.0 145:1.0 150:1.0 153:3.0 154:1.0 155:2.0 157:1.0 158:1.0 
1.0 0.0 1.0 0.0 0:1.0 1:0.5 2:1.0 9:1.5 10:3.0 11:3.5 12:1.5 13:2.5 14:4.5 15:0.5 24:0.5 25:0.5 33:1.5 34:2.0 35:2.5 36:1.5 37:1.0 38:1.5 49:1.0 57:1.0 58:2.0 59:3.0 60:1.0 61:1.0 62:2.0 72:0.5 73:0.5 74:0.5 81:2.0 82:3.0 83:4.0 84:2.5 85:1.0 86:2.5 96:1.0 105:1.0 106:2.0 107:2.0 108:1.0 109:1.0 110:1.0 130:1.0 131:1.0 144:1.0 153:1.0 154:2.0 155:2.0 156:1.0 157:1.0 158:2.0 
0.0762137034383478 0.0 0.0 1.0 1:3.0 2:2.0 6:0.5 9:2.5 10:1.0 11:4.0 12:3.5 13:1.0 14:4.5 25:3.5 26:1.5 33:1.5 34:0.5 35:2.5 36:2.5 37:1.0 38:4.0 49:1.0 50:1.0 57:1.0 59:1.0 60:2.0 62:3.0 73:1.5 74:0.5 81:0.5 83:1.0 84:1.5 85:0.5 86:2.5 97:2.0 98:1.0 105:1.0 107:2.0 108:1.0 110:3.0 145:2.0 146:1.0 153:1.0 155:1.0 156:2.0 158:2.0 
0.0 0.0 1.0 0.0 2:6.0 3:0.5 6:0.5 7:0.5 8:1.0 9:2.0 10:3.0 11:3.0 14:1.0 26:3.5 30:0.5 31:0.5 32:1.0 33:2.0 34:3.5 35:4.0 38:0.5 50:2.0 57:1.0 58:1.0 59:2.0 74:2.0 80:0.5 81:0.5 82:1.5 83:2.0 86:0.5 98:2.0 106:1.0 107:2.0 131:1.0 146:3.0 152:1.0 153:1.0 154:2.0 155:2.0 158:1.0 
1.0 0.0 1.0 0.14258006864970288 0:0.5 1:0.5 9:0.5 11:0.5 12:4.0 13:5.0 14:4.5 24:0.5 25:0.5 33:0.5 36:4.0 37:3.5 38:4.0 60:3.0 61:3.0 62:4.0 72:0.5 84:2.0 85:2.0 86:2.5 108:3.0 109:3.0 110:3.0 156:2.0 157:2.0 158:2.0 
0.0 0.0 1.0 0.0 1:1.0 2:4.5 8:0.5 11:1.0 12:1.5 13:1.5 14:5.5 25:1.0 26:1.5 32:0.5 35:1.5 36:1.5 37:1.5 38:5.5 60:1.0 61:1.0 62:3.0 73:1.5 74:1.5 83:1.5 84:1.5 85:1.0 86:4.0 97:1.0 98:1.0 107:1.0 108:1.0 109:1.0 110:3.0 134:1.0 145:1.0 146:2.0 155:1.0 156:1.0 157:1.0 158:3.0 
0.3744930952852221 0.0 0.2691663801404229 0.0 0:0.5 1:1.5 2:0.5 6:0.5 8:1.0 11:1.0 12:3.0 13:3.5 14:4.5 15:2.5 16:2.0 17:2.0 25:3.0 30:1.0 32:1.5 35:0.5 36:3.0 37:1.5 38:3.0 39:1.0 40:0.5 41:0.5 49:1.0 60:1.0 61:1.0 62:2.0 63:1.0 64:1.0 65:1.0 73:2.0 78:0.5 80:0.5 83:0.5 84:2.0 85:1.5 86:2.5 87:1.0 88:0.5 89:0.5 97:1.0 104:1.0 108:2.0 109:2.0 110:3.0 111:1.0 113:1.0 121:1.0 145:1.0 152:1.0 156:2.0 157:1.0 158:2.0 159:1.0 160:1.0 161:1.0 
0.07434102341304301 1.0 0.23655501845973897 0.0 2:0.5 6:2.5 7:2.5 8:3.0 9:0.5 10:0.5 11:1.0 12:2.0 13:1.0 14:2.5 30:1.5 31:1.0 32:2.0 33:1.0 35:1.0 36:4.0 37:2.5 38:4.0 54:1.0 55:1.0 56:2.0 59:1.0 60:1.0 61:1.0 62:2.0 78:2.0 79:2.0 80:3.0 81:0.5 82:0.5 83:2.0 84:3.0 85:2.0 86:4.5 102:1.0 103:1.0 104:2.0 107:1.0 108:1.0 109:1.0 110:2.0 132:1.0 133:1.0 134:3.0 150:1.0 151:1.0 152:1.0 153:1.0 155:1.0 156:2.0 157:1.0 158:2.0 
1.0 1.0 1.0 0.0 0:1.0 1:2.5 2:1.0 3:0.5 4:0.5 5:1.5 6:0.5 8:1.0 9:2.5 10:2.5 11:3.5 12:1.0 13:0.5 14:1.0 24:0.5 25:3.5 26:1.0 27:0.5 29:1.5 30:0.5 32:0.5 33:3.5 34:3.0 35:4.5 36:0.5 38:0.5 49:2.0 53:1.0 57:2.0 58:1.0 59:2.0 72:0.5 73:2.0 77:0.5 80:0.5 81:2.0 82:1.0 83:2.5 84:0.5 86:0.5 97:2.0 101:1.0 105:2.0 106:1.0 107:2.0 121:1.0 129:1.0 131:1.0 144:1.0 145:2.0 149:1.0 152:1.0 153:2.0 154:1.0 155:2.0 158:1.0 
1.0 1.0 1.0 0.0 1:1.0 2:4.5 3:1.0 4:0.5 5:1.5 6:1.5 7:1.5 8:3.0 11:1.5 12:0.5 14:3.5 25:1.5 26:4.0 27:0.5 29:1.5 30:1.5 31:1.5 32:4.0 35:1.5 38:3.5 50:2.0 54:1.0 56:2.0 59:1.0 62:2.0 73:0.5 74:2.5 75:0.5 77:0.5 78:0.5 80:1.5 83:1.0 86:2.0 98:2.0 101:1.0 104:2.0 107:1.0 110:2.0 128:1.0 145:1.0 146:2.0 147:1.0 149:1.0 150:1.0 151:1.0 152:2.0 155:1.0 158:2.0 
1.0 1.0 1.0 0.0 0:0.5 1:2.5 2:1.5 3:0.5 5:1.0 8:0.5 9:0.5 11:1.0 12:2.5 13:0.5 14:3.0 21:0.5 23:1.0 25:3.0 26:1.0 29:1.0 32:1.0 35:1.0 36:1.5 38:1.5 47:1.0 49:2.0 50:1.0 53:1.0 59:1.0 60:1.0 62:2.0 71:1.0 72:0.5 73:4.0 74:2.5 75:0.5 77:2.5 78:0.5 80:1.5 81:0.5 83:2.5 84:2.5 85:0.5 86:4.0 90:0.5 93:1.0 95:2.0 97:1.0 98:1.0 101:1.0 107:1.0 108:1.0 110:1.0 121:1.0 125:1.0 145:2.0 146:1.0 149:1.0 152:1.0 155:1.0 156:1.0 158:2.0 167:1.0 
0.6605748034068657 0.0 0.0 0.0 0:1.0 1:2.5 2:0.5 12:5.5 13:3.5 14:6.0 25:0.5 36:1.5 37:0.5 38:1.0 60:2.0 61:1.0 62:2.0 72:0.5 73:1.0 84:4.0 85:1.5 86:3.5 108:2.0 109:1.0 110:2.0 156:2.0 157:1.0 158:1.0 
1.0 0.0 1.0 0.0 1:0.5 2:4.5 6:0.5 7:2.5 8:1.5 9:0.5 10:5.0 11:4.5 14:1.0 25:0.5 26:2.5 31:1.0 32:2.0 33:0.5 34:3.5 35:4.5 38:1.0 50:2.0 55:1.0 56:1.0 58:2.0 59:3.0 62:1.0 74:1.0 79:0.5 80:0.5 82:1.5 83:2.5 86:0.5 98:1.0 106:2.0 107:2.0 146:1.0 151:1.0 152:1.0 154:2.0 155:2.0 
0.0 0.0 0.3947258739487768 0.0 1:1.0 9:1.0 10:1.0 11:1.5 12:3.5 13:4.5 14:4.5 25:0.5 33:0.5 34:0.5 35:0.5 36:1.5 37:2.0 38:2.5 60:2.0 61:3.0 62:4.0 81:0.5 82:0.5 83:0.5 84:3.0 85:3.5 86:4.0 108:2.0 109:3.0 110:3.0 155:1.0 156:2.0 157:3.0 158:3.0 
1.0 0.5173631733690854 0.0 1.0 0:1.5 1:4.0 2:2.0 3:1.5 5:1.0 8:0.5 12:3.5 14:3.0 15:1.0 21:0.5 23:0.5 24:1.5 25:5.0 26:0.5 27:1.5 29:1.5 36:2.5 38:2.0 39:0.5 48:1.0 49:4.0 50:1.0 51:1.0 53:1.0 60:2.0 62:1.0 72:0.5 73:3.5 74:0.5 75:0.5 77:0.5 84:1.5 86:1.0 97:3.0 99:1.0 101:1.0 108:2.0 110:2.0 121:2.0 144:1.0 145:4.0 146:1.0 147:1.0 149:1.0 156:2.0 158:1.0 
1.0 0.0 1.0 0.35557156914984794 1:0.5 2:5.0 6:3.0 7:4.0 8:3.0 9:1.0 10:2.0 11:2.0 26:2.0 30:2.0 31:3.5 32:3.0 33:0.5 34:1.5 35:1.0 50:1.0 54:1.0 55:2.0 56:1.0 73:0.5 74:1.0 78:1.0 79:2.5 80:2.5 82:0.5 83:0.5 102:1.0 103:2.0 104:2.0 106:1.0 127:1.0 128:1.0 146:2.0 150:2.0 151:2.0 152:2.0 154:1.0 155:1.0 
1.0 1.0 1.0 0.46205210631016136 0:0.5 1:1.5 2:5.0 8:0.5 9:1.5 10:0.5 11:3.5 12:1.0 13:0.5 14:3.0 25:1.0 26:2.0 33:1.5 34:0.5 35:3.0 36:0.5 38:1.5 49:1.0 50:3.0 57:1.0 59:2.0 62:2.0 72:0.5 73:2.5 74:3.5 81:2.0 82:0.5 83:3.5 84:0.5 86:1.5 97:1.0 98:2.0 105:1.0 107:2.0 110:1.0 121:1.0 131:1.0 145:2.0 146:3.0 153:1.0 155:2.0 156:1.0 158:1.0 
1.0 0.0 1.0 0.0 2:2.0 6:2.0 7:1.5 8:2.0 9:2.0 10:3.5 11:4.5 13:1.0 14:2.0 26:0.5 30:0.5 32:0.5 33:1.5 34:3.0 35:3.5 37:0.5 38:0.5 54:1.0 56:1.0 57:1.0 58:2.0 59:2.0 74:0.5 78:2.5 79:1.5 80:2.5 81:2.0 82:3.0 83:3.5 85:0.5 86:0.5 102:1.0 103:1.0 104:2.0 105:1.0 106:2.0 107:3.0 131:1.0 150:1.0 152:1.0 153:1.0 154:3.0 155:3.0 157:1.0 158:1.0 
0.28686565198183733 1.0 0.0 0.0 0:0.5 2:2.0 9:0.5 11:0.5 12:3.0 13:1.5 14:4.5 26:0.5 36:4.0 37:2.0 38:4.0 60:3.0 61:1.0 62:3.0 72:0.5 73:0.5 74:0.5 81:0.5 83:0.5 84:6.0 85:2.5 86:5.5 108:3.0 109:1.0 110:3.0 132:3.0 133:1.0 134:3.0 146:1.0 156:3.0 157:2.0 158:3.0 
1.0 0.0 1.0 0.0 0:0.5 1:0.5 2:0.5 9:1.5 10:2.0 11:3.5 12:3.0 13:3.0 14:4.0 33:1.5 34:1.0 35:2.5 36:2.0 37:1.5 38:2.5 57:1.0 58:1.0 59:2.0 60:2.0 61:2.0 62:3.0 73:0.5 81:1.0 82:1.5 83:3.0 84:2.5 85:2.5 86:3.5 105:1.0 106:1.0 107:2.0 108:2.0 109:1.0 110:3.0 153:1.0 154:1.0 155:2.0 156:2.0 157:2.0 158:3.0 
1.0 1.0 0.9159732210800952 1.0 1:1.0 2:0.5 6:2.5 7:2.0 8:4.5 9:0.5 11:1.0 12:2.0 13:0.5 14:0.5 25:1.0 30:2.0 31:1.5 32:4.5 33:0.5 35:1.0 36:1.0 54:2.0 55:1.0 56:4.0 59:1.0 73:1.5 78:2.0 79:2.0 80:5.5 81:0.5 83:1.5 84:2.0 86:0.5 97:1.0 102:2.0 103:1.0 104:3.0 108:1.0 126:1.0 128:1.0 145:1.0 150:2.0 151:2.0 152:5.0 155:1.0 156:1.0 
0.0 1.0 0.0 0.0 1:3.0 2:1.5 8:1.5 9:0.5 10:0.5 11:2.0 12:3.0 13:1.0 14:3.0 15:2.0 17:1.0 25:2.5 26:1.5 32:1.5 33:1.0 35:2.5 36:2.0 37:0.5 38:2.5 49:2.0 50:1.0 56:1.0 59:1.0 60:1.0 62:2.0 73:2.5 74:1.5 80:2.0 81:0.5 83:2.0 84:2.0 85:0.5 86:2.5 87:1.0 89:0.5 97:2.0 98:1.0 104:1.0 107:1.0 108:1.0 110:2.0 121:1.0 128:1.0 131:1.0 145:2.0 146:1.0 152:2.0 155:2.0 156:2.0 158:2.0 
0.0 0.0 0.08081720661427287 0.0 0:2.0 1:3.0 2:0.5 12:0.5 13:0.5 14:3.5 18:7.0 19:1.5 20:1.5 25:0.5 38:0.5 42:0.5 49:1.0 62:1.0 73:1.0 74:0.5 84:0.5 86:1.5 90:0.5 92:0.5 110:1.0 158:1.0 
0.6684181200980698 0.0 1.0 1.0 0:3.0 1:2.5 2:6.0 6:3.5 7:0.5 9:4.0 10:0.5 11:3.0 14:4.0 26:0.5 35:1.0 38:0.5 72:1.5 73:2.5 74:1.5 78:2.5 79:0.5 80:0.5 81:2.0 82:0.5 83:1.0 86:1.0 98:1.0 110:1.0 146:1.0 158:1.0 
1.0 0.0 0.7855306550392659 0.0 0:3.0 1:3.0 9:0.5 11:0.5 12:4.5 13:2.0 14:5.0 15:0.5 17:0.5 24:3.0 25:3.5 33:0.5 35:0.5 36:5.0 37:1.0 38:3.5 39:0.5 48:2.0 49:2.0 60:3.0 61:1.0 62:3.0 72:1.5 73:2.0 84:2.5 85:0.5 86:1.5 96:2.0 97:2.0 108:3.0 109:1.0 110:2.0 144:1.0 145:1.0 156:2.0 157:1.0 158:2.0 
0.0 1.0 0.0 0.0 0:0.5 1:1.5 2:4.0 6:0.5 8:3.5 9:1.0 10:0.5 11:3.0 12:3.0 14:1.0 25:1.5 26:2.5 32:4.0 33:1.0 34:0.5 35:3.5 36:2.0 38:1.5 50:2.0 56:2.0 57:1.0 59:2.0 60:1.0 62:1.0 73:0.5 74:1.0 78:0.5 80:2.5 81:0.5 82:0.5 83:2.0 84:0.5 86:0.5 98:2.0 104:2.0 107:2.0 108:1.0 131:1.0 145:1.0 146:2.0 152:3.0 153:1.0 155:2.0 156:1.0 158:1.0 
1.0 0.0 0.8908177560054981 0.0 0:6.5 3:1.5 4:2.5 5:2.0 6:1.5 7:1.5 8:1.0 24:1.0 27:1.0 28:3.0 29:2.0 30:2.0 31:2.0 32:1.0 51:1.0 52:2.0 53:1.0 54:1.0 55:1.0 56:1.0 72:0.5 75:1.0 76:2.5 77:2.0 78:1.5 79:1.5 80:1.5 99:1.0 100:1.0 101:1.0 102:1.0 103:1.0 104:1.0 126:1.0 144:1.0 147:1.0 148:2.0 149:2.0 150:1.0 151:2.0 152:1.0 
0.0 0.0 1.0 0.0 1:4.0 9:0.5 10:0.5 11:1.0 12:3.0 13:4.0 14:4.5 15:0.5 17:0.5 18:3.0 19:1.5 20:0.5 25:2.0 35:0.5 36:1.5 37:2.0 38:2.0 42:0.5 49:1.0 60:1.0 61:2.0 62:2.0 73:2.5 83:0.5 84:2.5 85:3.0 86:3.5 87:0.5 90:1.0 97:2.0 108:1.0 109:1.0 110:1.0 145:2.0 156:2.0 157:2.0 158:2.0 
0.8975991581302611 0.0 0.0 0.0 0:6.5 1:4.5 6:3.0 7:2.5 8:3.5 9:1.0 10:0.5 11:1.0 24:0.5 25:1.5 30:1.0 32:0.5 33:0.5 49:1.0 54:1.0 56:1.0 72:0.5 73:1.0 78:2.5 79:1.5 80:2.0 81:0.5 83:0.5 97:1.0 102:1.0 104:1.0 150:1.0 151:1.0 152:1.0 
1.0 0.0 1.0 0.0 0:2.5 1:2.0 2:4.5 6:0.5 8:0.5 9:3.0 10:1.0 11:3.5 12:3.0 13:1.0 14:3.0 24:1.0 25:1.5 26:2.0 30:0.5 33:2.0 34:0.5 35:3.0 36:1.0 37:0.5 38:2.5 49:1.0 50:1.0 57:1.0 59:2.0 60:1.0 62:1.0 72:1.0 73:1.5 74:1.0 81:2.0 82:0.5 83:2.0 84:1.5 85:0.5 86:1.0 96:1.0 97:2.0 98:1.0 105:2.0 107:3.0 108:2.0 110:1.0 144:1.0 145:1.0 146:1.0 153:1.0 155:1.0 156:1.0 158:1.0 
0.0 0.0 1.0 0.0 0:2.0 1:1.0 2:3.0 9:1.0 10:2.0 11:4.0 12:1.0 13:3.0 14:6.0 24:0.5 25:1.0 26:0.5 33:0.5 35:1.0 36:0.5 37:0.5 38:2.0 49:1.0 50:1.0 59:1.0 62:2.0 72:1.5 73:1.5 74:1.0 81:1.0 82:0.5 83:1.5 84:1.0 85:0.5 86:3.5 96:1.0 97:1.0 107:1.0 110:2.0 155:1.0 157:1.0 158:2.0 
0.0 1.0 0.0 0.0 0:6.5 1:0.5 12:1.5 13:0.5 14:3.0 24:2.0 25:2.5 36:3.5 37:1.0 38:4.5 48:1.0 49:1.0 60:1.0 62:3.0 72:1.0 73:1.0 84:1.5 85:0.5 86:3.5 96:1.0 97:1.0 108:1.0 110:2.0 120:1.0 121:1.0 132:2.0 134:3.0 144:2.0 145:1.0 156:1.0 157:1.0 158:4.0 
0.37298954167901377 0.0 0.0 0.0 2:3.0 6:1.0 7:1.0 8:1.5 9:1.5 10:1.5 11:1.5 12:3.0 13:3.0 14:3.5 26:1.5 30:1.0 31:1.0 32:2.5 33:1.5 34:1.5 35:2.5 36:2.5 37:3.0 38:4.0 50:1.0 56:1.0 57:1.0 58:1.0 59:1.0 60:1.0 61:2.0 62:2.0 74:0.5 78:0.5 79:0.5 80:1.5 81:0.5 82:0.5 83:1.5 84:1.0 85:1.0 86:2.0 98:1.0 104:1.0 105:1.0 106:1.0 107:1.0 108:2.0 109:1.0 110:2.0 134:1.0 146:1.0 151:1.0 152:1.0 153:1.0 154:1.0 155:1.0 156:2.0 157:2.0 158:2.0 
0.0 0.0 0.0 1.0 1:4.0 2:5.5 8:0.5 11:0.5 12:1.5 13:0.5 14:3.0 15:1.5 17:1.0 25:5.0 26:2.5 35:1.0 36:2.0 38:3.5 39:2.0 41:0.5 49:4.0 50:1.0 60:1.0 62:2.0 63:1.0 73:2.5 74:0.5 84:1.0 86:1.5 87:0.5 97:3.0 98:1.0 108:1.0 110:1.0 121:1.0 145:3.0 146:1.0 156:1.0 158:2.0 159:1.0 
0.0 0.0 0.6613733007146982 0.0 0:2.0 1:3.5 3:1.0 12:5.0 13:3.0 14:5.5 15:1.5 17:1.0 21:0.5 24:0.5 25:3.0 27:0.5 36:1.0 38:1.0 48:1.0 49:3.0 60:1.0 62:1.0 72:2.0 73:3.5 75:1.0 84:1.5 85:0.5 86:2.0 93:0.5 96:1.0 97:2.0 108:1.0 110:1.0 144:1.0 145:2.0 147:1.0 156:1.0 157:1.0 158:2.0 
0.0 1.0 1.0 0.0 0:0.5 1:1.5 9:3.5 10:4.0 11:1.5 12:0.5 14:0.5 18:1.0 20:2.0 25:1.5 33:4.5 34:5.0 35:2.0 42:0.5 44:0.5 49:1.0 57:2.0 58:3.0 59:1.0 73:0.5 81:3.5 82:3.5 83:1.5 97:1.0 105:3.0 106:3.0 107:1.0 116:1.0 129:2.0 130:1.0 145:2.0 153:3.0 154:4.0 155:2.0 162:1.0 164:1.0 
0.0 0.0 1.0 0.0 0:0.5 1:2.0 2:5.5 8:0.5 11:1.0 12:2.0 13:1.5 14:3.5 20:0.5 24:0.5 25:1.5 26:2.5 35:1.0 36:2.0 37:0.5 38:3.0 49:2.0 50:3.0 59:1.0 60:1.0 62:2.0 73:2.0 74:3.5 80:0.5 81:0.5 83:2.0 84:2.0 85:1.5 86:3.5 97:1.0 98:2.0 108:1.0 109:1.0 110:2.0 134:1.0 145:1.0 146:2.0 155:1.0 156:1.0 157:1.0 158:2.0 
0.0 1.0 0.0 0.0 1:1.5 6:1.0 7:0.5 8:1.5 9:1.5 10:1.0 11:2.5 12:3.0 13:1.5 14:3.5 25:1.5 30:0.5 32:1.0 33:1.5 35:2.0 36:2.0 37:0.5 38:2.0 49:1.0 56:1.0 57:1.0 59:2.0 60:1.0 62:1.0 73:2.0 78:1.5 80:2.0 81:2.0 82:0.5 83:3.5 84:4.0 85:2.0 86:4.0 97:1.0 104:1.0 105:1.0 107:2.0 108:2.0 109:1.0 110:2.0 131:1.0 145:1.0 150:1.0 152:1.0 153:2.0 154:1.0 155:2.0 156:2.0 157:1.0 158:2.0 
0.3790644962598291 1.0 0.848773283712287 0.6852069974988767 0:0.5 1:1.5 9:0.5 11:1.0 12:2.0 13:3.5 14:5.5 24:1.0 25:2.5 33:1.0 35:1.0 36:4.5 37:3.0 38:5.0 49:1.0 60:2.0 61:2.0 62:3.0 72:0.5 73:1.5 81:0.5 83:0.5 84:2.0 85:2.0 86:3.5 97:1.0 108:2.0 109:1.0 110:2.0 132:2.0 133:1.0 134:2.0 145:2.0 153:1.0 155:1.0 156:2.0 157:2.0 158:3.0 
1.0 1.0 1.0 0.43386086612337316 2:1.0 11:0.5 12:2.0 13:3.5 14:4.5 36:2.0 37:2.5 38:4.5 60:2.0 61:2.0 62:4.0 74:1.0 83:0.5 84:4.0 85:4.5 86:6.0 108:2.0 109:2.0 110:4.0 132:1.0 133:1.0 134:2.0 146:1.0 156:2.0 157:2.0 158:4.0 
0.0 1.0 0.0 0.0 0:0.5 1:1.5 2:1.5 6:1.5 7:0.5 8:2.0 9:0.5 11:1.0 12:3.0 13:1.5 14:1.5 25:1.5 26:1.5 30:2.0 32:2.5 33:1.0 35:1.5 36:2.5 37:1.0 38:2.5 49:1.0 50:1.0 54:1.0 56:2.0 59:1.0 60:2.0 61:1.0 62:2.0 72:0.5 73:2.0 74:1.5 78:2.0 79:0.5 80:3.5 81:0.5 83:1.5 84:3.0 85:1.5 86:2.5 97:1.0 98:1.0 102:1.0 104:2.0 107:1.0 108:1.0 110:1.0 121:1.0 126:1.0 128:1.0 131:1.0 132:1.0 134:1.0 145:1.0 146:1.0 150:1.0 152:2.0 153:1.0 155:1.0 156:2.0 157:1.0 158:2.0 
0.0 0.0 1.0 0.0 1:0.5 2:0.5 9:1.0 10:1.0 11:1.5 12:2.0 13:5.0 14:5.0 33:1.0 34:1.5 35:1.5 36:3.0 37:4.0 38:4.0 57:1.0 59:1.0 60:2.0 61:2.0 62:3.0 81:0.5 83:0.5 84:1.0 85:2.5 86:2.5 107:1.0 108:1.0 109:3.0 110:3.0 154:1.0 155:1.0 156:1.0 157:2.0 158:2.0 
1.0 0.0 0.4354546571615276 0.0 1:2.5 2:0.5 6:0.5 8:0.5 9:0.5 11:0.5 12:3.5 13:3.0 14:4.0 15:2.0 16:1.0 17:1.5 18:0.5 19:0.5 20:1.0 25:4.0 30:0.5 33:0.5 35:0.5 36:2.5 37:1.5 38:3.0 39:1.5 40:0.5 41:0.5 42:1.5 43:0.5 44:1.0 49:2.0 60:2.0 61:1.0 62:1.0 63:1.0 65:1.0 73:2.0 83:0.5 84:3.0 85:1.5 86:2.5 87:1.0 88:0.5 89:0.5 97:2.0 108:2.0 109:1.0 110:2.0 111:1.0 121:1.0 145:2.0 156:2.0 157:1.0 158:2.0 159:1.0 161:1.0 
0.0 1.0 0.0 1.0 0:5.0 1:7.0 2:1.0 14:2.0 25:5.0 26:1.5 36:1.0 38:4.5 49:2.0 62:1.0 73:3.5 74:0.5 86:1.5 97:2.0 110:1.0 121:3.0 134:2.0 145:3.0 146:1.0 158:2.0 
1.0 1.0 0.3432560428153053 0.44345735766344535 6:3.0 7:2.0 8:2.0 10:0.5 11:0.5 12:0.5 13:1.5 14:1.5 30:6.5 31:4.5 32:5.5 37:0.5 38:0.5 54:3.0 55:2.0 56:3.0 78:4.0 79:2.0 80:3.0 82:0.5 83:0.5 85:0.5 102:3.0 103:2.0 104:2.0 126:3.0 127:2.0 128:3.0 150:4.0 151:3.0 152:3.0 
1.0 0.03657668966274906 1.0 1.0 0:2.0 1:3.5 2:0.5 3:3.0 4:2.0 5:4.0 8:0.5 9:0.5 11:2.0 12:1.0 13:0.5 14:2.5 15:0.5 18:0.5 20:0.5 21:1.5 23:0.5 24:0.5 25:4.0 27:2.0 28:0.5 29:1.5 35:0.5 36:1.0 38:1.5 45:0.5 47:0.5 49:3.0 51:1.0 53:1.0 62:1.0 69:1.0 72:0.5 73:4.0 75:1.0 77:1.0 83:0.5 84:1.0 86:1.0 93:0.5 95:0.5 97:3.0 99:1.0 101:1.0 108:1.0 110:1.0 121:1.0 144:1.0 145:2.0 147:1.0 149:1.0 155:1.0 156:1.0 158:1.0 165:1.0 
1.0 1.0 1.0 0.0 1:0.5 2:3.5 8:1.0 11:1.5 12:1.5 13:1.5 14:4.5 26:1.5 32:0.5 35:1.5 36:1.0 37:1.5 38:4.5 50:2.0 59:1.0 60:1.0 61:1.0 62:4.0 74:3.0 80:0.5 83:1.5 84:2.0 85:2.0 86:6.0 98:2.0 107:1.0 108:1.0 109:1.0 110:4.0 134:1.0 146:2.0 155:1.0 156:1.0 157:1.0 158:5.0 
1.0 0.0 1.0 0.0 0:1.0 1:1.5 2:0.5 12:4.5 13:3.5 14:5.5 15:0.5 18:0.5 24:1.0 25:1.5 36:4.5 37:2.5 38:4.5 42:0.5 49:1.0 60:3.0 61:2.0 62:4.0 73:0.5 84:2.0 85:1.0 86:2.5 97:1.0 108:3.0 109:1.0 110:3.0 156:2.0 157:1.0 158:2.0 
1.0 0.0 0.2143744366777819 0.0 1:7.0 3:2.0 5:1.0 14:2.0 15:0.5 16:0.5 17:2.0 18:0.5 20:0.5 21:0.5 25:4.0 27:0.5 29:0.5 38:1.5 39:1.0 41:2.0 49:3.0 73:3.0 86:0.5 97:3.0 110:1.0 145:2.0 158:1.0 161:1.0 
0.0 1.0 0.0 1.0 0:1.0 1:4.5 2:0.5 6:0.5 8:0.5 9:0.5 14:0.5 15:2.0 16:0.5 17:2.0 18:0.5 24:1.0 25:6.5 30:1.0 32:0.5 33:0.5 38:0.5 41:0.5 48:1.0 49:5.0 65:1.0 72:1.0 73:7.0 78:0.5 87:1.0 89:1.0 96:1.0 97:5.0 113:1.0 121:8.0 144:1.0 145:5.0 150:1.0 159:1.0 161:1.0 
0.0 1.0 1.0 1.0 1:3.5 2:1.5 9:0.5 11:1.0 12:1.5 13:0.5 14:3.5 15:1.0 17:0.5 25:3.5 26:1.0 35:1.0 36:1.5 38:4.0 49:2.0 50:1.0 60:1.0 62:2.0 73:5.0 74:1.5 83:1.5 84:2.0 86:4.5 87:1.0 89:0.5 97:3.0 98:1.0 107:1.0 108:1.0 110:3.0 121:3.0 132:1.0 134:3.0 145:3.0 146:1.0 155:1.0 156:2.0 158:4.0 159:1.0 
1.0 1.0 1.0 1.0 0:2.5 1:3.5 6:3.5 7:0.5 8:1.0 9:4.5 10:1.0 11:2.5 12:2.5 13:1.0 14:1.5 24:0.5 25:2.0 30:1.0 32:0.5 33:2.0 34:0.5 35:2.0 36:0.5 38:0.5 48:1.0 49:2.0 54:1.0 57:2.0 59:2.0 60:1.0 62:1.0 72:1.0 73:3.0 78:1.5 80:0.5 81:3.0 82:1.0 83:3.0 84:1.0 85:0.5 86:1.0 96:1.0 97:2.0 102:1.0 105:2.0 107:2.0 108:1.0 110:1.0 145:2.0 150:1.0 152:1.0 153:2.0 155:2.0 156:1.0 158:1.0 
1.0 1.0 1.0 1.0 0:2.0 1:3.5 2:3.0 3:0.5 5:3.5 6:1.0 7:0.5 8:3.5 9:0.5 10:0.5 11:0.5 23:1.0 24:1.5 25:3.5 26:2.5 27:0.5 29:3.0 30:1.5 31:0.5 32:4.0 33:1.0 34:0.5 35:1.5 47:0.5 49:2.0 50:1.0 53:2.0 56:2.0 72:0.5 73:2.0 74:1.0 77:1.5 78:0.5 80:2.0 95:0.5 96:1.0 97:2.0 98:2.0 101:2.0 102:1.0 104:3.0 121:1.0 144:1.0 145:2.0 146:1.0 149:2.0 150:1.0 152:2.0 
0.4790636480791369 1.0 1.0 0.0 0:0.5 1:0.5 2:2.0 6:0.5 9:1.5 10:4.0 11:4.0 13:0.5 14:2.0 26:0.5 30:0.5 33:2.5 34:4.5 35:5.5 38:1.0 57:1.0 58:3.0 59:3.0 73:0.5 74:0.5 81:2.0 82:4.0 83:3.5 85:0.5 86:0.5 105:1.0 106:2.0 107:3.0 129:1.0 130:1.0 131:3.0 144:1.0 146:1.0 150:1.0 153:2.0 154:3.0 155:3.0 158:1.0 
1.0 0.0 0.36163668059620324 0.0 1:0.5 2:4.5 3:2.5 4:5.0 6:2.0 7:4.5 8:1.5 11:0.5 26:1.5 27:1.0 28:2.5 30:1.5 31:4.0 32:3.0 49:1.0 50:2.0 51:1.0 52:1.0 54:1.0 55:2.0 56:2.0 74:0.5 75:0.5 76:1.0 78:0.5 79:2.0 80:1.0 100:1.0 102:1.0 103:3.0 104:1.0 127:1.0 128:1.0 146:1.0 147:1.0 148:2.0 150:1.0 151:3.0 152:1.0 
1.0 0.0 1.0 0.0 0:1.0 1:0.5 2:3.5 9:0.5 10:1.0 11:1.5 12:2.5 13:2.5 14:5.0 26:0.5 33:0.5 34:0.5 35:1.0 36:2.0 37:1.5 38:2.5 50:1.0 59:1.0 60:1.0 61:1.0 62:3.0 72:0.5 73:1.5 74:1.5 81:0.5 82:0.5 83:2.0 84:3.0 85:2.5 86:4.5 98:1.0 107:1.0 108:1.0 109:1.0 110:3.0 146:1.0 155:1.0 156:1.0 157:1.0 158:2.0 
1.0 0.0 1.0 0.0 2:6.0 9:0.5 10:0.5 11:1.5 12:1.0 13:3.5 14:5.5 26:1.0 35:1.0 36:0.5 37:1.5 38:2.5 50:1.0 59:1.0 61:1.0 62:2.0 74:2.0 80:0.5 81:0.5 82:0.5 83:2.5 84:0.5 85:1.0 86:3.0 98:1.0 107:1.0 109:1.0 110:2.0 131:1.0 146:1.0 153:1.0 155:1.0 157:1.0 158:2.0 
1.0 0.0 1.0 0.0 2:4.0 9:1.5 10:1.5 11:3.0 12:1.0 13:1.5 14:4.0 26:1.0 33:0.5 34:1.0 35:2.0 37:1.0 38:1.5 50:1.0 57:1.0 58:1.0 59:1.0 61:1.0 62:2.0 74:3.0 81:3.0 82:3.5 83:4.0 84:1.5 85:3.5 86:4.5 98:1.0 105:1.0 106:1.0 107:2.0 109:1.0 110:2.0 131:1.0 146:2.0 153:1.0 154:1.0 155:2.0 157:1.0 158:2.0 
0.0 0.0 0.0 1.0 1:6.5 2:0.5 12:0.5 14:3.5 17:0.5 25:5.0 36:0.5 38:2.0 49:3.0 62:1.0 73:3.0 86:0.5 97:3.0 110:1.0 121:1.0 145:4.0 158:1.0 
1.0 0.0 1.0 0.0 0:0.5 1:1.5 2:0.5 6:1.5 7:0.5 8:1.5 9:2.5 10:1.5 11:3.5 12:3.0 13:1.5 14:4.0 25:1.5 30:2.0 31:0.5 32:1.5 33:2.5 34:2.0 35:4.0 36:2.5 37:1.5 38:3.5 49:1.0 54:1.0 57:1.0 58:1.0 59:2.0 60:1.0 61:1.0 62:2.0 73:0.5 78:0.5 80:0.5 81:1.0 82:0.5 83:1.5 84:1.0 85:0.5 86:1.5 97:1.0 102:1.0 104:1.0 105:2.0 106:1.0 107:2.0 108:1.0 109:1.0 110:2.0 150:1.0 152:1.0 153:1.0 155:2.0 156:1.0 157:1.0 158:2.0 
1.0 0.0 1.0 0.0 0:1.0 1:2.5 12:3.0 13:2.0 14:4.0 15:2.5 16:2.0 17:3.5 18:1.0 20:0.5 21:0.5 23:0.5 25:2.5 36:1.5 38:1.5 39:0.5 41:0.5 42:0.5 49:2.0 60:1.0 62:1.0 65:1.0 72:0.5 73:3.5 84:2.5 85:1.0 86:3.0 87:1.0 88:0.5 89:1.5 90:1.0 92:0.5 93:0.5 95:0.5 97:1.0 108:1.0 110:2.0 111:1.0 113:1.0 114:1.0 121:1.0 144:1.0 145:2.0 156:2.0 157:1.0 158:2.0 159:1.0 161:1.0 162:1.0 
0.5312354553654014 0.0 1.0 0.0 2:1.5 6:0.5 7:0.5 8:0.5 9:1.5 10:3.5 11:3.0 12:2.0 13:3.5 14:5.5 26:0.5 30:0.5 32:0.5 33:2.5 34:5.0 35:4.5 36:1.5 37:2.0 38:4.0 57:1.0 58:2.0 59:2.0 62:1.0 81:0.5 82:1.5 83:2.0 86:1.0 105:1.0 106:2.0 107:2.0 110:2.0 153:1.0 154:1.0 155:1.0 157:1.0 158:1.0 
1.0 0.0 1.0 1.0 2:2.5 4:0.5 6:3.5 7:5.0 8:5.0 9:0.5 10:0.5 11:3.0 14:1.5 26:1.0 30:1.5 31:3.0 32:4.0 35:2.0 50:1.0 54:1.0 55:2.0 56:2.0 59:2.0 74:1.0 78:0.5 79:1.0 80:1.5 83:1.0 86:1.0 98:1.0 102:1.0 103:1.0 104:2.0 107:1.0 146:1.0 150:1.0 151:2.0 152:2.0 155:1.0 
1.0 0.0 1.0 0.0 0:0.5 1:2.5 2:3.0 9:1.0 10:4.5 11:2.5 12:1.0 13:0.5 14:2.5 15:0.5 17:0.5 18:5.0 19:1.5 20:2.5 25:0.5 33:0.5 34:1.0 35:0.5 36:0.5 38:0.5 42:0.5 49:1.0 58:2.0 59:1.0 62:1.0 66:1.0 72:0.5 73:3.0 74:1.0 81:0.5 82:2.0 83:1.5 84:1.0 85:0.5 86:1.5 87:0.5 89:0.5 90:2.5 91:0.5 92:2.0 97:1.0 98:1.0 106:1.0 107:1.0 110:1.0 114:2.0 116:1.0 145:1.0 154:1.0 155:1.0 158:1.0 162:1.0 164:1.0 
0.7525256262072654 0.0 0.0 0.0 1:3.0 2:2.0 9:4.0 10:0.5 11:3.0 12:6.0 13:3.0 14:6.0 36:1.0 37:0.5 38:2.0 62:1.0 73:0.5 81:0.5 83:0.5 84:0.5 85:0.5 86:2.0 110:1.0 158:1.0 
0.0 0.0 0.06639114497817872 0.0 0:1.0 1:1.5 12:5.5 13:2.5 14:5.5 17:0.5 36:2.0 37:0.5 38:1.5 60:3.0 62:2.0 72:0.5 73:1.0 84:4.0 85:1.0 86:3.5 108:3.0 109:1.0 110:2.0 156:2.0 157:1.0 158:2.0 
0.0 0.0 0.0 1.0 1:5.0 9:2.5 11:1.5 12:4.0 13:2.5 14:4.0 25:2.5 33:0.5 35:0.5 36:3.0 37:1.0 38:2.5 49:3.0 57:1.0 60:1.0 62:1.0 73:2.5 81:1.0 83:0.5 84:1.0 85:0.5 86:1.0 97:2.0 105:1.0 108:2.0 109:1.0 110:1.0 145:3.0 153:1.0 155:1.0 156:2.0 157:1.0 158:2.0 
1.0 0.0 1.0 0.0 0:0.5 2:2.5 6:4.0 7:2.5 8:4.5 9:2.0 10:3.0 11:3.5 12:2.0 13:3.5 14:2.5 30:1.5 31:0.5 32:0.5 33:0.5 35:0.5 54:2.0 55:1.0 56:1.0 57:1.0 58:1.0 59:1.0 78:2.5 79:1.5 80:1.5 81:1.5 82:1.5 83:1.0 84:0.5 85:1.0 86:0.5 102:2.0 103:1.0 104:2.0 105:1.0 106:1.0 107:1.0 155:1.0 
0.14917132509465145 0.0 0.0 0.0 2:2.0 6:6.0 7:6.5 8:1.5 11:2.5 26:1.0 30:2.5 31:3.5 32:3.5 34:0.5 35:3.0 56:1.0 59:1.0 74:0.5 79:1.5 80:1.5 83:0.5 104:1.0 107:1.0 146:1.0 150:1.0 151:1.0 152:1.0 155:1.0 
1.0 0.0 1.0 0.0 1:0.5 2:6.5 8:1.0 9:0.5 10:1.5 11:5.0 14:2.0 25:0.5 26:4.5 32:1.5 34:0.5 35:4.0 38:0.5 50:2.0 59:2.0 74:2.5 80:0.5 83:2.0 98:2.0 107:1.0 146:3.0 155:2.0 
0.3633284695843833 0.3612204220158202 1.0 0.0 2:2.0 6:1.5 7:1.0 8:3.0 9:1.0 10:4.0 11:2.5 12:0.5 13:2.0 14:1.0 26:1.0 30:1.5 31:1.0 32:2.5 33:1.0 34:1.5 35:2.5 50:1.0 54:1.0 55:1.0 56:2.0 57:1.0 58:2.0 59:1.0 74:1.5 78:2.0 79:2.0 80:4.0 81:1.5 82:3.0 83:2.5 85:0.5 86:0.5 98:1.0 102:1.0 103:1.0 104:3.0 105:1.0 106:2.0 107:1.0 126:1.0 127:1.0 128:1.0 130:1.0 131:1.0 146:1.0 150:1.0 151:1.0 152:2.0 153:1.0 154:2.0 155:2.0 
1.0 1.0 1.0 1.0 0:1.0 1:2.5 2:0.5 6:1.0 8:1.0 9:1.5 10:0.5 11:1.5 12:2.0 13:1.0 14:1.5 24:1.0 25:4.0 30:1.0 32:1.5 33:2.0 35:2.0 36:1.5 37:0.5 38:1.5 48:1.0 49:2.0 54:1.0 56:1.0 57:1.0 59:1.0 60:2.0 62:1.0 72:1.5 73:4.0 74:0.5 78:1.5 80:2.0 81:2.0 83:3.0 84:3.5 85:0.5 86:2.5 97:2.0 102:1.0 104:1.0 105:1.0 107:1.0 108:1.0 110:1.0 121:3.0 126:1.0 128:1.0 129:1.0 131:1.0 132:1.0 144:1.0 145:3.0 150:1.0 152:2.0 153:2.0 155:2.0 156:2.0 157:1.0 158:1.0 
1.0 1.0 1.0 1.0 1:3.0 2:4.0 5:1.0 8:1.5 11:0.5 12:0.5 14:2.0 20:2.0 23:1.5 25:3.0 26:3.5 32:1.0 38:1.5 44:1.5 47:0.5 49:2.0 50:3.0 56:1.0 62:1.0 68:1.0 73:2.5 74:4.0 77:0.5 80:1.0 83:0.5 86:2.0 92:2.5 95:1.0 97:2.0 98:3.0 110:1.0 116:1.0 119:1.0 122:1.0 145:3.0 146:4.0 149:1.0 152:1.0 158:2.0 164:2.0 167:1.0 
